{"learner":{"attributes":{"best_iteration":"1","best_score":"0.6462806049320433"},"feature_names":[],"feature_types":[],"gradient_booster":{"model":{"cats":{"enc":[],"feature_segments":[],"sorted_idx":[]},"gbtree_model_param":{"num_parallel_tree":"1","num_trees":"52"},"iteration_indptr":[0,1,2,3,4,5,6,7,8,9,10,11,12,13,14,15,16,17,18,19,20,21,22,23,24,25,26,27,28,29,30,31,32,33,34,35,36,37,38,39,40,41,42,43,44,45,46,47,48,49,50,51,52],"tree_info":[0,0,0,0,0,0,0,0,0,0,0,0,0,0,0,0,0,0,0,0,0,0,0,0,0,0,0,0,0,0,0,0,0,0,0,0,0,0,0,0,0,0,0,0,0,0,0,0,0,0,0,0],"trees":[{"base_weights":[5.2629605E-2,-1.2252313E-1,5.690057E-1,-2.3840417E-1,8.663448E-1,7.725719E-1,-2.829192E-2,2.7468407E-1,-4.52812E-1,7.24204E-2,1.23148495E-2,-6.435079E-3,9.8727834E-1,-2.4205945E-1,8.2053703E-1,-5.806454E-1,2.3889849E-2,1.6264398E-1,1.523879E0,1.7450996E-2,-4.6551924E-2,-1.1052108E-2,1.2863594E0,-2.799543E-1,-1.0159281E0,4.2085465E-2,-2.2863522E-2,3.5617422E-2,9.8496884E-2,9.863288E-2,1.279718E-2,3.5617422E-2,-2.510644E-2,-1.44756185E-2,-6.3614964E-2],"categories":[],"categories_nodes":[],"categories_segments":[],"categories_sizes":[],"default_left":[0,0,0,0,0,0,0,0,0,0,0,0,0,0,0,0,0,0,0,0,0,0,0,0,0,0,0,0,0,0,0,0,0,0,0],"id":0,"left_children":[1,3,5,7,9,11,-1,13,15,-1,-1,-1,17,19,21,23,-1,25,27,-1,-1,-1,29,31,33,-1,-1,-1,-1,-1,-1,-1,-1,-1,-1],"loss_changes":[9.566452E0,9.285408E0,6.6219206E0,8.012337E0,2.720481E0,4.6015606E0,0E0,6.3348193E0,6.3383036E0,0E0,0E0,0E0,8.066517E0,5.1904335E0,5.5278273E0,5.637616E0,0E0,3.9741619E0,2.6738873E0,0E0,0E0,0E0,4.879569E0,6.5616617E0,3.0034485E0,0E0,0E0,0E0,0E0,0E0,0E0,0E0,0E0,0E0,0E0],"parents":[2147483647,0,0,1,1,2,2,3,3,4,4,5,5,7,7,8,8,12,12,13,13,14,14,15,15,17,17,18,18,22,22,23,23,24,24],"right_children":[2,4,6,8,10,12,-1,14,16,-1,-1,-1,18,20,22,24,-1,26,28,-1,-1,-1,30,32,34,-1,-1,-1,-1,-1,-1,-1,-1,-1,-1],"split_conditions":[3.7429968E-1,7.592096E-1,1.2285708E0,-5.659754E-1,-4.2509252E-1,-5.915286E-1,-2.829192E-2,2.443977E-1,9.801698E-1,7.24204E-2,1.23148495E-2,-6.435079E-3,-4.3959373E-1,8.788677E-2,-6.3974506E-1,-3.28333E-1,2.3889849E-2,-2.092775E-1,-5.698729E-1,1.7450996E-2,-4.6551924E-2,-1.1052108E-2,1.0573524E0,-1.1390849E0,-5.537961E-1,4.2085465E-2,-2.2863522E-2,3.5617422E-2,9.8496884E-2,9.863288E-2,1.279718E-2,3.5617422E-2,-2.510644E-2,-1.44756185E-2,-6.3614964E-2],"split_indices":[45,38,8,47,1,26,0,28,23,0,0,0,43,26,8,4,0,4,44,0,0,0,13,42,10,0,0,0,0,0,0,0,0,0,0],"split_type":[0,0,0,0,0,0,0,0,0,0,0,0,0,0,0,0,0,0,0,0,0,0,0,0,0,0,0,0,0,0,0,0,0,0,0],"sum_hessian":[1.0400049E2,7.822844E1,2.577205E1,7.070209E1,7.526351E0,2.2122911E1,3.64914E0,2.0754482E1,4.99476E1,3.1929975E0,4.3333535E0,4.3333535E0,1.7789557E1,1.094742E1,9.807063E0,4.4245823E1,5.7017813E0,7.526351E0,1.0263206E1,6.1579237E0,4.789496E0,3.1929975E0,6.614066E0,2.7140478E1,1.7105343E1,3.4210687E0,4.1052823E0,4.5614247E0,5.7017813E0,3.4210687E0,3.1929975E0,4.5614247E0,2.2579054E1,5.017567E0,1.2087776E1],"tree_param":{"num_deleted":"0","num_feature":"53","num_nodes":"35","size_leaf_vector":"1"}},{"base_weights":[-6.0840096E-2,-1.6716655E-1,7.7327967E-1,-2.3082589E-1,4.279837E-2,1.2879256E0,-1.0801703E-2,2.1744204E-1,-3.7970552E-1,9.4179586E-2,2.381199E-2,9.709783E-1,-2.2963238E-1,3.7549574E-2,-4.90632E-1,3.3427295E-4,7.7398E-2,2.0776311E-2,-7.015677E-1,-2.547205E-2,-1.000653E0,7.0267194E-4,-5.4992676E-2,-2.624834E-2,2.8257895E-2,-6.056382E-2,-2.2018442E-2],"categories":[],"categories_nodes":[],"categories_segments":[],"categories_sizes":[],"default_left":[0,0,0,0,0,0,0,0,0,0,0,0,0,0,0,0,0,0,0,0,0,0,0,0,0,0,0],"id":1,"left_children":[1,3,5,7,-1,9,-1,11,13,-1,-1,15,17,-1,19,-1,-1,-1,21,23,25,-1,-1,-1,-1,-1,-1],"loss_changes":[9.254342E0,6.1948185E0,6.291394E0,5.9202857E0,0E0,2.9286108E0,0E0,7.784149E0,8.64997E0,0E0,0E0,4.7460804E0,4.8267636E0,0E0,1.4383108E1,0E0,0E0,0E0,2.5733976E0,9.970294E0,2.882225E0,0E0,0E0,0E0,0E0,0E0,0E0],"parents":[2147483647,0,0,1,1,2,2,3,3,5,5,7,7,8,8,11,11,12,12,14,14,18,18,19,19,20,20],"right_children":[2,4,6,8,-1,10,-1,12,14,-1,-1,16,18,-1,20,-1,-1,-1,22,24,26,-1,-1,-1,-1,-1,-1],"split_conditions":[8.030027E-1,1.4839683E0,8.796572E-1,-9.303694E-1,4.279837E-2,1.0540364E0,-1.0801703E-2,-3.736174E-1,-7.714421E-1,9.4179586E-2,2.381199E-2,-6.190247E-1,-1.838586E-1,3.7549574E-2,-3.6610547E-1,3.3427295E-4,7.7398E-2,2.0776311E-2,-5.4472905E-1,1.6040759E-1,4.129064E-1,7.0267194E-4,-5.4992676E-2,-2.624834E-2,2.8257895E-2,-6.056382E-2,-2.2018442E-2],"split_indices":[38,45,11,26,0,12,0,43,38,0,0,43,16,0,23,0,0,0,39,39,45,0,0,0,0,0,0],"split_type":[0,0,0,0,0,0,0,0,0,0,0,0,0,0,0,0,0,0,0,0,0,0,0,0,0,0,0],"sum_hessian":[1.0188846E2,9.107818E1,1.0810278E1,8.6472275E1,4.6059065E0,6.912516E0,3.897762E0,2.1444279E1,6.502799E1,3.2251244E0,3.6873918E0,7.548895E0,1.3895383E1,5.294086E0,5.973391E1,3.2046475E0,4.3442473E0,5.9208374E0,7.974546E0,3.1790043E1,2.7943867E1,3.1963003E0,4.7782454E0,1.7284092E1,1.4505951E1,1.946474E1,8.479126E0],"tree_param":{"num_deleted":"0","num_feature":"53","num_nodes":"27","size_leaf_vector":"1"}},{"base_weights":[4.5548134E-2,2.7127275E-1,-1.53057E-1,8.579592E-1,-1.3581413E-1,-4.55795E-1,2.4415572E-1,1.464722E-4,1.0608723E0,1.2232526E-1,-8.4847534E-1,1.2227966E-1,-6.657191E-1,-2.8026959E-2,5.127776E-1,1.811089E-2,1.220197E0,-1.220454E-1,5.230418E-2,-1.4029147E-2,-6.0265955E-2,-2.8397456E-2,4.755182E-2,-1.2519647E-1,-9.66699E-1,7.482914E-1,-1.8699877E-2,1.4912496E0,3.1494778E-2,-4.534321E-2,2.0478535E-1,-2.9788096E-2,2.518867E-2,-1.0312413E-2,-5.7615258E-2,2.489887E-1,6.796667E-2,3.784352E-2,9.05367E-2,6.288789E-2,-2.1342328E-2,-3.869043E-2,4.9347635E-2],"categories":[],"categories_nodes":[],"categories_segments":[],"categories_sizes":[],"default_left":[0,0,0,0,0,0,0,0,0,0,0,0,0,0,0,0,0,0,0,0,0,0,0,0,0,0,0,0,0,0,0,0,0,0,0,0,0,0,0,0,0,0,0],"id":2,"left_children":[1,3,5,7,9,11,13,-1,15,17,19,21,23,-1,25,-1,27,29,-1,-1,-1,-1,-1,31,33,35,-1,37,-1,-1,39,-1,-1,-1,-1,41,-1,-1,-1,-1,-1,-1,-1],"loss_changes":[4.6923013E0,1.1799431E1,6.8244E0,3.49716E0,5.5752974E0,3.9681993E0,5.647417E0,0E0,1.3727016E0,5.253639E0,1.28999E0,5.9043326E0,3.7267847E0,0E0,4.271543E0,0E0,1.1171837E0,5.021464E0,0E0,0E0,0E0,0E0,0E0,3.143905E0,1.8856354E0,4.370763E0,0E0,5.245819E-1,0E0,0E0,9.931701E0,0E0,0E0,0E0,0E0,8.099148E0,0E0,0E0,0E0,0E0,0E0,0E0,0E0],"parents":[2147483647,0,0,1,1,2,2,3,3,4,4,5,5,6,6,8,8,9,9,10,10,11,11,12,12,14,14,16,16,17,17,23,23,24,24,25,25,27,27,30,30,35,35],"right_children":[2,4,6,8,10,12,14,-1,16,18,20,22,24,-1,26,-1,28,30,-1,-1,-1,-1,-1,32,34,36,-1,38,-1,-1,40,-1,-1,-1,-1,42,-1,-1,-1,-1,-1,-1,-1],"split_conditions":[-4.044045E-1,-1.1011338E-1,2.5503665E-1,-6.826146E-1,-1.3974018E-2,-5.666022E-1,-4.4514313E-1,1.464722E-4,-1.2435827E0,3.5352054E-1,1.7901681E-1,9.955049E-2,-3.627806E-1,-2.8026959E-2,1.1330026E0,1.811089E-2,-5.653367E-1,-1.0003518E0,5.230418E-2,-1.4029147E-2,-6.0265955E-2,-2.8397456E-2,4.755182E-2,1.2529479E-1,-5.822021E-1,-3.5873783E-1,-1.8699877E-2,-1.9612856E-1,3.1494778E-2,-4.534321E-2,-1.20762296E-1,-2.9788096E-2,2.518867E-2,-1.0312413E-2,-5.7615258E-2,-2.856891E-1,6.796667E-2,3.784352E-2,9.05367E-2,6.288789E-2,-2.1342328E-2,-3.869043E-2,4.9347635E-2],"split_indices":[24,12,24,24,45,45,43,0,42,36,32,28,31,0,37,0,42,0,0,0,0,0,0,5,14,38,0,28,0,0,15,0,0,0,0,32,0,0,0,0,0,0,0],"split_type":[0,0,0,0,0,0,0,0,0,0,0,0,0,0,0,0,0,0,0,0,0,0,0,0,0,0,0,0,0,0,0,0,0,0,0,0,0,0,0,0,0,0,0],"sum_hessian":[1.0274246E2,4.791677E1,5.4825687E1,1.9174812E1,2.874196E1,3.1029154E1,2.3796534E1,3.8722923E0,1.530252E1,2.170746E1,7.034499E0,8.377439E0,2.2651714E1,5.6836457E0,1.8112888E1,3.4495137E0,1.1853006E1,1.785262E1,3.854843E0,3.4038293E0,3.63067E0,4.7424192E0,3.6350193E0,8.608277E0,1.4043436E1,1.4435269E1,3.6776185E0,7.077112E0,4.775894E0,4.7269855E0,1.3125632E1,4.9544163E0,3.6538615E0,3.1693678E0,1.0874068E1,8.718542E0,5.7167273E0,3.1668062E0,3.9103057E0,4.549699E0,8.575933E0,3.6337268E0,5.084815E0],"tree_param":{"num_deleted":"0","num_feature":"53","num_nodes":"43","size_leaf_vector":"1"}},{"base_weights":[1.5535115E-2,-4.2790607E-1,1.078177E-1,1.6187385E-2,-7.0041883E-1,2.1473311E-1,-4.4101393E-1,-1.0092789E0,1.2714165E-2,9.7112775E-2,6.6644825E-2,-7.8058976E-1,2.2485396E-2,-5.972246E-2,-2.1413768E-2,3.651775E-1,-2.179854E-1,-5.5071294E-2,2.3427438E-4,-1.15019284E-1,7.069335E-1,-7.1359444E-1,3.840301E-1,-3.6030468E-2,4.0653896E-2,4.3643344E-2,-1.0670214E-2,-5.6940448E-2,-1.085998E-2,-1.7278695E-2,5.2587718E-2],"categories":[],"categories_nodes":[],"categories_segments":[],"categories_sizes":[],"default_left":[0,0,0,0,0,0,0,0,0,0,0,0,0,0,0,0,0,0,0,0,0,0,0,0,0,0,0,0,0,0,0],"id":3,"left_children":[1,3,5,-1,7,9,11,13,-1,15,-1,17,-1,-1,-1,19,21,-1,-1,23,25,27,29,-1,-1,-1,-1,-1,-1,-1,-1],"loss_changes":[4.3881683E0,4.011854E0,5.295183E0,0E0,4.348831E0,9.714625E0,4.8207436E0,6.3819695E-1,0E0,5.8912244E0,0E0,2.7927408E0,0E0,0E0,0E0,6.2436824E0,9.897324E0,0E0,0E0,9.844446E0,3.557806E0,3.5604239E0,7.775079E0,0E0,0E0,0E0,0E0,0E0,0E0,0E0,0E0],"parents":[2147483647,0,0,1,1,2,2,4,4,5,5,6,6,7,7,9,9,11,11,15,15,16,16,19,19,20,20,21,21,22,22],"right_children":[2,4,6,-1,8,10,12,14,-1,16,-1,18,-1,-1,-1,20,22,-1,-1,24,26,28,30,-1,-1,-1,-1,-1,-1,-1,-1],"split_conditions":[-6.9345295E-1,-7.9392844E-1,9.027701E-1,1.6187385E-2,2.1781546E-1,6.786491E-1,1.0839245E0,-9.979365E-2,1.2714165E-2,-2.1914136E-1,6.6644825E-2,6.063436E-1,2.2485396E-2,-5.972246E-2,-2.1413768E-2,-4.431786E-1,3.665783E-1,-5.5071294E-2,2.3427438E-4,3.6636627E-1,1.132716E0,-2.888746E-1,-4.3959373E-1,-3.6030468E-2,4.0653896E-2,4.3643344E-2,-1.0670214E-2,-5.6940448E-2,-1.085998E-2,-1.7278695E-2,5.2587718E-2],"split_indices":[45,23,31,0,33,31,47,31,0,45,0,2,0,0,0,33,45,0,0,10,5,8,43,0,0,0,0,0,0,0,0],"split_type":[0,0,0,0,0,0,0,0,0,0,0,0,0,0,0,0,0,0,0,0,0,0,0,0,0,0,0,0,0,0,0],"sum_hessian":[1.0510535E2,1.7478727E1,8.762662E1,4.600757E0,1.2877971E1,7.3849144E1,1.3777473E1,9.686938E0,3.1910322E0,6.780368E1,6.0454636E0,1.0064255E1,3.7132194E0,6.5451202E0,3.141818E0,3.655023E1,3.1253456E1,6.8592186E0,3.2050357E0,1.5472902E1,2.1077326E1,1.7039967E1,1.4213489E1,9.498575E0,5.974326E0,1.790136E1,3.1759667E0,8.480967E0,8.559001E0,7.0225744E0,7.190914E0],"tree_param":{"num_deleted":"0","num_feature":"53","num_nodes":"31","size_leaf_vector":"1"}},{"base_weights":[9.565982E-3,-9.241671E-2,8.5403425E-1,1.957588E-1,-3.8563588E-1,1.3310175E0,-7.5079575E-3,5.017476E-1,-2.962633E-1,-6.71708E-1,1.3578635E-1,8.417319E-2,2.791295E-2,-3.0533819E-2,7.3899364E-1,4.0233004E-1,-7.970308E-1,-7.9585767E-1,4.7548967E-3,5.969047E-1,-4.119737E-2,2.584327E-1,1.1375623E0,4.5902662E-2,-1.5819479E-2,-2.8456578E-3,-5.4575484E-2,-8.472304E-3,-9.13553E-1,1.0234691E0,-1.2394736E-2,-1.0033958E-2,5.6221534E-2,7.095481E-2,1.38311535E-2,-5.513045E-2,-2.0116167E-2,2.372921E-2,7.123982E-2],"categories":[],"categories_nodes":[],"categories_segments":[],"categories_sizes":[],"default_left":[0,0,0,0,0,0,0,0,0,0,0,0,0,0,0,0,0,0,0,0,0,0,0,0,0,0,0,0,0,0,0,0,0,0,0,0,0,0,0],"id":4,"left_children":[1,3,5,7,9,11,-1,13,15,17,19,-1,-1,-1,21,23,25,27,-1,29,-1,31,33,-1,-1,-1,-1,-1,35,37,-1,-1,-1,-1,-1,-1,-1,-1,-1],"loss_changes":[9.350957E0,8.268816E0,5.803297E0,7.6109576E0,7.310486E0,1.2479343E0,0E0,8.614708E0,7.189381E0,3.0668507E0,8.447961E0,0E0,0E0,0E0,4.6757984E0,3.575409E0,2.5035424E0,1.8467598E0,0E0,4.8387065E0,0E0,5.4171586E0,2.97402E0,0E0,0E0,0E0,0E0,0E0,1.7433071E0,1.2291279E0,0E0,0E0,0E0,0E0,0E0,0E0,0E0,0E0,0E0],"parents":[2147483647,0,0,1,1,2,2,3,3,4,4,5,5,7,7,8,8,9,9,10,10,14,14,15,15,16,16,17,17,19,19,21,21,22,22,28,28,29,29],"right_children":[2,4,6,8,10,12,-1,14,16,18,20,-1,-1,-1,22,24,26,28,-1,30,-1,32,34,-1,-1,-1,-1,-1,36,38,-1,-1,-1,-1,-1,-1,-1,-1,-1],"split_conditions":[7.592096E-1,9.398455E-2,8.796572E-1,-3.8328984E-1,3.4348017E-1,2.545832E-1,-7.5079575E-3,-6.386648E-1,-4.359009E-1,1.0049452E0,1.2404205E0,8.417319E-2,2.791295E-2,-3.0533819E-2,-1.5189678E-2,-5.5328053E-1,-3.6083987E-1,2.5897455E-1,4.7548967E-3,-1.8718979E-1,-4.119737E-2,-5.81531E-1,-3.476362E-1,4.5902662E-2,-1.5819479E-2,-2.8456578E-3,-5.4575484E-2,-8.472304E-3,4.9905273E-1,-7.942576E-1,-1.2394736E-2,-1.0033958E-2,5.6221534E-2,7.095481E-2,1.38311535E-2,-5.513045E-2,-2.0116167E-2,2.372921E-2,7.123982E-2],"split_indices":[38,47,11,23,36,31,0,4,38,28,23,0,0,0,28,12,26,47,0,38,0,23,4,0,0,0,0,0,26,10,0,0,0,0,0,0,0,0,0],"split_type":[0,0,0,0,0,0,0,0,0,0,0,0,0,0,0,0,0,0,0,0,0,0,0,0,0,0,0,0,0,0,0,0,0,0,0,0,0,0,0],"sum_hessian":[1.06662636E2,9.596404E1,1.069859E1,4.8565903E1,4.739814E1,7.032672E0,3.6659184E0,2.9931635E1,1.8634266E1,3.0420225E1,1.6977917E1,4.0204706E0,3.0122015E0,4.984723E0,2.4946913E1,7.8624144E0,1.0771852E1,2.614873E1,4.271496E0,1.1723324E1,5.2545924E0,1.20574465E1,1.2889466E1,4.416193E0,3.446221E0,3.4056513E0,7.3662E0,4.5218287E0,2.16269E1,7.6494136E0,4.07391E0,8.381979E0,3.6754673E0,9.224629E0,3.6648376E0,1.4943808E1,6.6830926E0,4.1525784E0,3.4968352E0],"tree_param":{"num_deleted":"0","num_feature":"53","num_nodes":"39","size_leaf_vector":"1"}},{"base_weights":[3.761484E-2,-4.703642E-1,1.2960815E-1,2.3819903E-2,-7.3111176E-1,-4.487566E-1,2.2568825E-1,-9.6764934E-1,1.519446E-3,1.7663594E-2,-8.3382213E-1,9.9338406E-1,1.329764E-1,-1.4854858E-2,-6.383509E-2,-1.1225344E-2,-5.564868E-2,2.0952819E-2,7.53254E-2,-2.3394213E-3,7.340664E-1,5.4886836E-1,-1.7870517E-1,1.1510077E0,-1.0629929E-2,-8.351064E-3,5.148075E-2,1.607029E-2,-2.3330696E-2,1.4653884E-2,7.573574E-2],"categories":[],"categories_nodes":[],"categories_segments":[],"categories_sizes":[],"default_left":[0,0,0,0,0,0,0,0,0,0,0,0,0,0,0,0,0,0,0,0,0,0,0,0,0,0,0,0,0,0,0],"id":5,"left_children":[1,3,5,-1,7,9,11,13,-1,-1,15,17,19,-1,-1,-1,-1,-1,-1,21,23,25,27,29,-1,-1,-1,-1,-1,-1,-1],"loss_changes":[5.078749E0,4.4660263E0,5.196803E0,0E0,2.4561548E0,4.4321814E0,5.5119805E0,1.7573128E0,0E0,0E0,1.3403625E0,1.8412905E0,5.850573E0,0E0,0E0,0E0,0E0,0E0,0E0,5.9010296E0,5.4613276E0,5.236376E0,6.7700543E0,2.4677744E0,0E0,0E0,0E0,0E0,0E0,0E0,0E0],"parents":[2147483647,0,0,1,1,2,2,4,4,5,5,6,6,7,7,10,10,11,11,12,12,19,19,20,20,21,21,22,22,23,23],"right_children":[2,4,6,-1,8,10,12,14,-1,-1,16,18,20,-1,-1,-1,-1,-1,-1,22,24,26,28,30,-1,-1,-1,-1,-1,-1,-1],"split_conditions":[-6.7194855E-1,-1.0337595E0,-7.177201E-1,2.3819903E-2,6.039272E-1,-4.2527157E-1,-6.0068303E-1,-7.0047396E-1,1.519446E-3,1.7663594E-2,3.4424424E-1,-4.468219E-2,6.081571E-1,-1.4854858E-2,-6.383509E-2,-1.1225344E-2,-5.564868E-2,2.0952819E-2,7.53254E-2,-7.052126E-1,1.108195E0,-1.1614565E0,-3.4488907E-1,-6.595089E-1,-1.0629929E-2,-8.351064E-3,5.148075E-2,1.607029E-2,-2.3330696E-2,1.4653884E-2,7.573574E-2],"split_indices":[24,26,45,0,11,0,24,31,0,0,12,33,38,0,0,0,0,0,0,38,10,39,45,8,0,0,0,0,0,0,0],"split_type":[0,0,0,0,0,0,0,0,0,0,0,0,0,0,0,0,0,0,0,0,0,0,0,0,0,0,0,0,0,0,0],"sum_hessian":[1.0637669E2,1.5680013E1,9.069668E1,3.2073236E0,1.247269E1,1.2397557E1,7.8299126E1,9.310077E0,3.1626127E0,4.0482607E0,8.349298E0,7.3902E0,7.090892E1,3.5559769E0,5.7540994E0,3.1901886E0,5.1591086E0,4.3443484E0,3.0458515E0,5.869236E1,1.2216562E1,1.3715203E1,4.4977158E1,8.331327E0,3.8852353E0,5.772233E0,7.9429708E0,1.6390224E1,2.8586931E1,3.0180387E0,5.313288E0],"tree_param":{"num_deleted":"0","num_feature":"53","num_nodes":"31","size_leaf_vector":"1"}},{"base_weights":[1.5120576E-3,3.0237395E-1,-1.7049453E-1,-3.675915E-2,4.2245418E-1,-6.3223934E-1,5.4360524E-2,8.402117E-1,6.288469E-2,7.1507404E-3,-7.865105E-1,-1.0591895E-1,5.4083717E-1,8.964896E-2,3.618555E-1,-6.262557E-1,7.756877E-1,-2.2680315E-1,-5.8484077E-2,-4.6449178E-1,2.158712E-1,-2.2546345E-2,7.291432E-2,9.424507E-1,-2.691924E-2,-9.115341E-1,2.5602786E-3,6.0048558E-2,8.137189E-4,-4.2211033E-2,2.6096573E-2,3.2130873E-1,-9.327534E-1,7.5617105E-1,-2.4463807E-1,3.1037942E-2,-3.0230626E-2,1.9075496E-2,6.4978324E-2,-2.0600129E-2,-5.8224555E-2,-1.1228697E-2,4.0593132E-2,-5.945424E-2,-1.1324233E-2,6.9556214E-2,-1.3522525E-2,2.4663046E-2,-3.6855135E-2],"categories":[],"categories_nodes":[],"categories_segments":[],"categories_sizes":[],"default_left":[0,0,0,0,0,0,0,0,0,0,0,0,0,0,0,0,0,0,0,0,0,0,0,0,0,0,0,0,0,0,0,0,0,0,0,0,0,0,0,0,0,0,0,0,0,0,0,0,0],"id":6,"left_children":[1,3,5,-1,7,9,11,13,15,-1,17,19,21,-1,23,25,27,29,-1,31,33,35,-1,37,-1,39,-1,-1,-1,-1,-1,41,43,45,47,-1,-1,-1,-1,-1,-1,-1,-1,-1,-1,-1,-1,-1,-1],"loss_changes":[5.519371E0,5.143898E0,7.0804048E0,0E0,5.2654185E0,2.7800322E0,3.6876776E0,6.778469E0,1.0363471E1,0E0,3.7572222E0,4.2377257E0,6.0815206E0,0E0,6.8328753E0,2.1295347E0,3.3170881E0,4.537713E0,0E0,6.6569037E0,5.056969E0,3.4588594E0,0E0,1.0508342E0,0E0,4.852252E-1,0E0,0E0,0E0,0E0,0E0,2.1090083E0,1.7369576E0,6.4087267E0,4.479532E0,0E0,0E0,0E0,0E0,0E0,0E0,0E0,0E0,0E0,0E0,0E0,0E0,0E0,0E0],"parents":[2147483647,0,0,1,1,2,2,4,4,5,5,6,6,7,7,8,8,10,10,11,11,12,12,14,14,15,15,16,16,17,17,19,19,20,20,21,21,23,23,25,25,31,31,32,32,33,33,34,34],"right_children":[2,4,6,-1,8,10,12,14,16,-1,18,20,22,-1,24,26,28,30,-1,32,34,36,-1,38,-1,40,-1,-1,-1,-1,-1,42,44,46,48,-1,-1,-1,-1,-1,-1,-1,-1,-1,-1,-1,-1,-1,-1],"split_conditions":[-2.988788E-1,-1.2361053E0,2.191401E-2,-3.675915E-2,-4.044045E-1,-9.788355E-1,1.168734E0,-6.008866E-1,3.7055427E-1,7.1507404E-3,-7.2056466E-1,-5.421893E-2,-1.1668788E-1,8.964896E-2,-1.738386E-1,3.9194846E-1,5.324009E-1,-4.8035416E-1,-5.8484077E-2,-7.840388E-1,-3.9410722E-1,1.1375103E0,7.291432E-2,-5.5058193E-1,-2.691924E-2,-5.7292414E-1,2.5602786E-3,6.0048558E-2,8.137189E-4,-4.2211033E-2,2.6096573E-2,-5.283187E-1,4.1766435E-1,3.3777913E-1,-3.4449E-1,3.1037942E-2,-3.0230626E-2,1.9075496E-2,6.4978324E-2,-2.0600129E-2,-5.8224555E-2,-1.1228697E-2,4.0593132E-2,-5.945424E-2,-1.1324233E-2,6.9556214E-2,-1.3522525E-2,2.4663046E-2,-3.6855135E-2],"split_indices":[12,3,22,0,24,28,26,8,24,0,5,44,36,0,43,45,33,39,0,31,3,51,0,43,0,10,0,0,0,0,0,24,28,26,32,0,0,0,0,0,0,0,0,0,0,0,0,0,0],"split_type":[0,0,0,0,0,0,0,0,0,0,0,0,0,0,0,0,0,0,0,0,0,0,0,0,0,0,0,0,0,0,0,0,0,0,0,0,0,0,0,0,0,0,0,0,0,0,0,0,0],"sum_hessian":[1.0465786E2,3.779375E1,6.686411E1,3.3889544E0,3.4404797E1,2.1304035E1,4.5560074E1,1.5296359E1,1.9108437E1,3.5478907E0,1.7756144E1,3.485776E1,1.0702313E1,4.194246E0,1.1102113E1,9.777213E0,9.331224E0,7.862747E0,9.893397E0,1.6276873E1,1.8580887E1,7.2349367E0,3.467377E0,6.720773E0,4.38134E0,6.6369033E0,3.1403098E0,5.6087756E0,3.7224486E0,4.239371E0,3.6233766E0,6.1948986E0,1.0081975E1,8.254331E0,1.0326557E1,3.405106E0,3.8298306E0,3.4188743E0,3.301899E0,3.1147456E0,3.5221574E0,3.1887255E0,3.0061731E0,6.895664E0,3.1863108E0,4.8806534E0,3.3736768E0,4.1326547E0,6.1939025E0],"tree_param":{"num_deleted":"0","num_feature":"53","num_nodes":"49","size_leaf_vector":"1"}},{"base_weights":[-4.185258E-2,3.0476424E-1,-2.241103E-1,6.909512E-2,1.1119301E0,-4.6464154E-1,8.988941E-2,-5.534826E-2,3.4023398E-1,7.171024E-2,2.6166348E-2,6.780916E-2,-7.473244E-1,-4.3569982E-1,3.3930516E-1,7.724732E-2,5.818469E-2,-4.124833E-2,5.2215725E-1,-8.604804E-1,3.0505226E-3,1.3564879E-2,-4.27446E-2,7.45562E-1,-2.9492128E-1,4.333859E-2,-2.3861654E-1,-5.4459187E-4,6.1348837E-2,-2.3100942E-3,-1.0323039E0,1.1932504E0,-7.923826E-3,1.6638631E-2,-3.6673043E-2,2.1399045E-2,-2.9760672E-2,-5.911098E-2,-1.6827498E-2,9.089934E-2,2.0460742E-2],"categories":[],"categories_nodes":[],"categories_segments":[],"categories_sizes":[],"default_left":[0,0,0,0,0,0,0,0,0,0,0,0,0,0,0,0,0,0,0,0,0,0,0,0,0,0,0,0,0,0,0,0,0,0,0,0,0,0,0,0,0],"id":7,"left_children":[1,3,5,7,9,11,13,-1,15,-1,-1,17,19,21,23,25,-1,-1,27,29,-1,-1,-1,31,33,-1,35,-1,-1,-1,37,39,-1,-1,-1,-1,-1,-1,-1,-1,-1],"loss_changes":[6.7509193E0,6.9381957E0,5.3213997E0,9.818534E0,8.1775475E-1,6.0328665E0,4.23251E0,0E0,5.2866898E0,0E0,0E0,6.3935676E0,2.4347649E0,3.3336053E0,5.8094378E0,5.166715E0,0E0,0E0,3.9035966E0,3.1580887E0,0E0,0E0,0E0,5.6556735E0,2.7729232E0,0E0,3.8178785E0,0E0,0E0,0E0,1.570713E0,3.7381697E0,0E0,0E0,0E0,0E0,0E0,0E0,0E0,0E0,0E0],"parents":[2147483647,0,0,1,1,2,2,3,3,4,4,5,5,6,6,8,8,11,11,12,12,13,13,14,14,15,15,18,18,19,19,23,23,24,24,26,26,30,30,31,31],"right_children":[2,4,6,8,10,12,14,-1,16,-1,-1,18,20,22,24,26,-1,-1,28,30,-1,-1,-1,32,34,-1,36,-1,-1,-1,38,40,-1,-1,-1,-1,-1,-1,-1,-1,-1],"split_conditions":[-2.988788E-1,1.2052567E0,8.017612E-1,-1.0326697E0,-5.080983E-1,-4.811198E-1,-6.526401E-1,-5.534826E-2,3.7717524E-1,7.171024E-2,2.6166348E-2,-6.7344785E-1,1.328077E0,-3.887493E-1,3.147553E-2,-5.0400805E-1,5.818469E-2,-4.124833E-2,7.31404E-1,-9.7791284E-1,3.0505226E-3,1.3564879E-2,-4.27446E-2,-5.3037472E-2,-5.6922084E-1,4.333859E-2,-5.455235E-1,-5.4459187E-4,6.1348837E-2,-2.3100942E-3,1.1466697E0,5.428054E-1,-7.923826E-3,1.6638631E-2,-3.6673043E-2,2.1399045E-2,-2.9760672E-2,-5.911098E-2,-1.6827498E-2,9.089934E-2,2.0460742E-2],"split_indices":[12,29,22,39,11,4,45,0,31,0,0,8,2,0,8,11,0,0,29,29,0,0,0,4,31,0,24,0,0,0,8,48,0,0,0,0,0,0,0,0,0],"split_type":[0,0,0,0,0,0,0,0,0,0,0,0,0,0,0,0,0,0,0,0,0,0,0,0,0,0,0,0,0,0,0,0,0,0,0,0,0,0,0,0,0],"sum_hessian":[1.0478184E2,3.5877686E1,6.890416E1,2.8609995E1,7.267689E0,3.8744896E1,3.0159262E1,4.7826552E0,2.382734E1,3.7679958E0,3.4996934E0,1.3700075E1,2.5044819E1,9.465631E0,2.0693632E1,1.8888702E1,4.9386377E0,4.3455434E0,9.354532E0,2.1912811E1,3.1320086E0,3.6546357E0,5.810995E0,1.2506796E1,8.186835E0,4.899048E0,1.3989654E1,5.8868804E0,3.4676516E0,4.0392995E0,1.787351E1,8.150621E0,4.3561745E0,3.4664252E0,4.7204103E0,4.805815E0,9.183839E0,1.412975E1,3.7437603E0,3.802195E0,4.348426E0],"tree_param":{"num_deleted":"0","num_feature":"53","num_nodes":"41","size_leaf_vector":"1"}},{"base_weights":[2.8676338E-2,-3.9668303E-2,9.559951E-1,2.9305243E-1,-2.3763487E-1,7.09357E-2,1.352499E-2,7.649539E-1,-4.803533E-2,-8.1657976E-1,-1.4574805E-1,-1.2144203E-2,1.0410305E0,-7.818295E-1,4.153805E-1,-1.7352832E-2,-5.076872E-2,3.757016E-2,-2.5529686E-1,1.4701103E0,8.093716E-4,-1.007153E-2,-5.3583827E-2,-2.6555697E-2,7.5415975E-1,-7.968389E-1,-9.538559E-2,8.636363E-2,3.706957E-2,9.102839E-3,5.8689386E-2,6.3782237E-3,-5.7653297E-2,2.275122E-2,-1.2638872E-2],"categories":[],"categories_nodes":[],"categories_segments":[],"categories_sizes":[],"default_left":[0,0,0,0,0,0,0,0,0,0,0,0,0,0,0,0,0,0,0,0,0,0,0,0,0,0,0,0,0,0,0,0,0,0,0],"id":8,"left_children":[1,3,5,7,9,-1,-1,11,13,15,17,-1,19,21,23,-1,-1,-1,25,27,-1,-1,-1,-1,29,31,33,-1,-1,-1,-1,-1,-1,-1,-1],"loss_changes":[6.7119036E0,6.5929885E0,1.9216695E0,6.0554314E0,3.2135282E0,0E0,0E0,4.634308E0,8.02539E0,4.2824364E-1,5.6249866E0,0E0,5.495E0,1.3171091E0,5.0605593E0,0E0,0E0,0E0,4.254972E0,3.751278E-1,0E0,0E0,0E0,0E0,2.454802E0,3.8567371E0,3.558281E0,0E0,0E0,0E0,0E0,0E0,0E0,0E0,0E0],"parents":[2147483647,0,0,1,1,2,2,3,3,4,4,7,7,8,8,9,9,10,10,12,12,13,13,14,14,18,18,19,19,24,24,25,25,26,26],"right_children":[2,4,6,8,10,-1,-1,12,14,16,18,-1,20,22,24,-1,-1,-1,26,28,-1,-1,-1,-1,30,32,34,-1,-1,-1,-1,-1,-1,-1,-1],"split_conditions":[1.5496637E0,-2.988788E-1,8.796572E-1,-4.1208336E-1,-4.7678486E-1,7.09357E-2,1.352499E-2,-1.1404568E0,1.02041185E-1,-1.5606463E-1,-7.2056466E-1,-1.2144203E-2,-4.496895E-2,-3.1090698E-1,-7.4791485E-1,-1.7352832E-2,-5.076872E-2,3.757016E-2,-2.0338124E-2,-7.5419784E-1,8.093716E-4,-1.007153E-2,-5.3583827E-2,-2.6555697E-2,-1.1369746E0,-7.4378645E-1,-1.168734E0,8.636363E-2,3.706957E-2,9.102839E-3,5.8689386E-2,6.3782237E-3,-5.7653297E-2,2.275122E-2,-1.2638872E-2],"split_indices":[5,12,11,24,39,0,0,0,24,27,5,0,43,28,8,0,0,0,22,5,0,0,0,0,5,0,27,0,0,0,0,0,0,0,0],"split_type":[0,0,0,0,0,0,0,0,0,0,0,0,0,0,0,0,0,0,0,0,0,0,0,0,0,0,0,0,0,0,0,0,0,0,0],"sum_hessian":[1.0430559E2,9.803733E1,6.2682605E0,3.6392483E1,6.1644848E1,3.103641E0,3.1646194E0,1.4747015E1,2.1645468E1,7.3634796E0,5.428137E1,3.196863E0,1.1550152E1,8.112561E0,1.3532907E1,3.0070598E0,4.35642E0,5.2693005E0,4.901207E1,7.835234E0,3.714918E0,3.2665243E0,4.846037E0,3.4174302E0,1.0115477E1,1.0265337E1,3.874673E1,4.778598E0,3.0566359E0,4.886831E0,5.2286453E0,3.034016E0,7.2313213E0,8.195496E0,3.0551235E1],"tree_param":{"num_deleted":"0","num_feature":"53","num_nodes":"35","size_leaf_vector":"1"}},{"base_weights":[-1.707753E-2,-9.247947E-2,4.4434702E-1,1.9951724E-1,-3.029453E-1,-1.8445281E-2,7.395714E-1,-2.863417E-1,4.916635E-1,-7.637998E-1,-1.6765267E-1,1.1740665E0,-1.32280635E-2,-5.33804E-2,1.4195237E-1,9.469686E-1,-1.9097442E-2,-1.1250269E-2,-5.1205385E-2,4.523177E-2,-3.1611222E-1,3.4453034E-2,7.4178E-2,-3.4990326E-2,5.917034E-1,3.096865E-3,1.2064221E0,5.2230973E-2,-5.136814E-1,-4.5822135E-1,1.9367029E-1,5.8282673E-2,-3.7376445E-3,8.3252266E-2,2.8476287E-2,-5.7692327E-2,9.874753E-3,-4.77479E-3,-5.015082E-2,3.13344E-2,-1.6576625E-2],"categories":[],"categories_nodes":[],"categories_segments":[],"categories_sizes":[],"default_left":[0,0,0,0,0,0,0,0,0,0,0,0,0,0,0,0,0,0,0,0,0,0,0,0,0,0,0,0,0,0,0,0,0,0,0,0,0,0,0,0,0],"id":9,"left_children":[1,3,5,7,9,-1,11,13,15,17,19,21,-1,-1,23,25,27,-1,-1,-1,29,-1,-1,-1,31,-1,33,-1,35,37,39,-1,-1,-1,-1,-1,-1,-1,-1,-1,-1],"loss_changes":[3.6924746E0,5.655019E0,3.8533537E0,5.6388397E0,3.1952295E0,0E0,5.2293844E0,5.2299666E0,5.7289863E0,1.4266539E0,7.0492563E0,1.8653488E-1,0E0,0E0,4.459467E0,2.91117E0,7.1413026E0,0E0,0E0,0E0,2.8459563E0,0E0,0E0,0E0,2.958413E0,0E0,1.9730778E0,0E0,4.43457E0,5.844372E0,2.2544975E0,0E0,0E0,0E0,0E0,0E0,0E0,0E0,0E0,0E0,0E0],"parents":[2147483647,0,0,1,1,2,2,3,3,4,4,6,6,7,7,8,8,9,9,10,10,11,11,14,14,15,15,16,16,20,20,24,24,26,26,28,28,29,29,30,30],"right_children":[2,4,6,8,10,-1,12,14,16,18,20,22,-1,-1,24,26,28,-1,-1,-1,30,-1,-1,-1,32,-1,34,-1,36,38,40,-1,-1,-1,-1,-1,-1,-1,-1,-1,-1],"split_conditions":[1.2115785E0,-2.8984225E-1,-8.528478E-1,-1.1060429E0,-3.9948544E-1,-1.8445281E-2,6.7015344E-1,-6.672134E-1,-4.1208336E-1,-4.0599686E-1,-9.582898E-1,5.428054E-1,-1.32280635E-2,-5.33804E-2,-1.631776E-1,-6.85305E-1,-1.1860536E0,-1.1250269E-2,-5.1205385E-2,4.523177E-2,5.8620054E-2,3.4453034E-2,7.4178E-2,-3.4990326E-2,4.3572497E-1,3.096865E-3,-3.9889804E-1,5.2230973E-2,4.594657E-2,-3.6549413E-1,6.3604647E-1,5.8282673E-2,-3.7376445E-3,8.3252266E-2,2.8476287E-2,-5.7692327E-2,9.874753E-3,-4.77479E-3,-5.015082E-2,3.13344E-2,-1.6576625E-2],"split_indices":[22,12,28,5,37,0,28,0,24,11,26,48,0,0,33,24,22,0,0,0,43,0,0,0,33,0,43,0,24,23,28,0,0,0,0,0,0,0,0,0,0],"split_type":[0,0,0,0,0,0,0,0,0,0,0,0,0,0,0,0,0,0,0,0,0,0,0,0,0,0,0,0,0,0,0,0,0,0,0,0,0,0,0,0,0],"sum_hessian":[1.0394796E2,9.0034836E1,1.3913122E1,3.7734562E1,5.230027E1,3.6390572E0,1.0274065E1,1.4177046E1,2.3557516E1,1.0815004E1,4.1485268E1,7.0529637E0,3.221101E0,4.4914093E0,9.6856365E0,1.2003373E1,1.1554144E1,4.130315E0,6.684689E0,4.425737E0,3.7059532E1,4.004283E0,3.0486805E0,3.1792786E0,6.5063586E0,3.0019686E0,9.001405E0,3.3141603E0,8.239984E0,2.9059834E1,7.9996977E0,3.0933464E0,3.413012E0,4.2945952E0,4.706809E0,4.008914E0,4.2310696E0,1.815049E1,1.0909344E1,4.2787423E0,3.7209556E0],"tree_param":{"num_deleted":"0","num_feature":"53","num_nodes":"41","size_leaf_vector":"1"}},{"base_weights":[4.6073105E-2,-4.723033E-1,1.6532417E-1,-5.216202E-2,-1.02525614E-1,9.240767E-1,6.720428E-2,-6.26659E-1,4.5253792E-1,9.892444E-2,1.9849415E-3,-1.0157499E-1,5.223293E-1,-5.6959875E-2,3.054879E-3,4.8785985E-2,-8.698857E-3,5.6638084E-2,-7.586579E-1,-1.991462E-2,6.961362E-1,4.4844276E-1,-2.2420445E-1,-1.0620681E-2,-5.5982888E-2,8.8483244E-1,-1.04575455E-2,4.766289E-2,-2.7472654E-3,-2.0974565E-2,1.9316012E-2,3.9121993E-3,5.614657E-2],"categories":[],"categories_nodes":[],"categories_segments":[],"categories_sizes":[],"default_left":[0,0,0,0,0,0,0,0,0,0,0,0,0,0,0,0,0,0,0,0,0,0,0,0,0,0,0,0,0,0,0,0,0],"id":10,"left_children":[1,3,5,-1,7,9,11,13,15,-1,-1,17,19,-1,-1,-1,-1,21,23,-1,25,27,29,-1,-1,31,-1,-1,-1,-1,-1,-1,-1],"loss_changes":[6.7620964E0,4.217055E0,6.5373726E0,0E0,4.2225914E0,9.313774E0,6.1654615E0,2.6721547E0,2.5154834E0,0E0,0E0,6.1644516E0,3.7477016E0,0E0,0E0,0E0,0E0,5.42487E0,2.029149E0,0E0,3.3638172E0,5.270926E0,3.6019428E0,0E0,0E0,2.9061337E0,0E0,0E0,0E0,0E0,0E0,0E0,0E0],"parents":[2147483647,0,0,1,1,2,2,4,4,5,5,6,6,7,7,8,8,11,11,12,12,17,17,18,18,20,20,21,21,22,22,25,25],"right_children":[2,4,6,-1,8,10,12,14,16,-1,-1,18,20,-1,-1,-1,-1,22,24,-1,26,28,30,-1,-1,32,-1,-1,-1,-1,-1,-1,-1],"split_conditions":[-1.0003518E0,-4.9348697E-1,-7.4378645E-1,-5.216202E-2,-2.6925907E-1,-1.15713775E-1,3.8136825E-1,2.5385875E-1,1.1375103E0,9.892444E-2,1.9849415E-3,-8.979678E-2,-4.4514313E-1,-5.6959875E-2,3.054879E-3,4.8785985E-2,-8.698857E-3,-4.0996906E-1,4.6140112E-2,-1.991462E-2,2.2629695E0,-9.674636E-3,5.772609E-1,-1.0620681E-2,-5.5982888E-2,-6.217547E-1,-1.04575455E-2,4.766289E-2,-2.7472654E-3,-2.0974565E-2,1.9316012E-2,3.9121993E-3,5.614657E-2],"split_indices":[0,5,0,0,4,37,24,12,51,0,0,24,43,0,0,0,0,45,16,0,43,12,45,0,0,45,0,0,0,0,0,0,0],"split_type":[0,0,0,0,0,0,0,0,0,0,0,0,0,0,0,0,0,0,0,0,0,0,0,0,0,0,0,0,0,0,0,0,0],"sum_hessian":[1.07125916E2,1.9481323E1,8.764459E1,6.9418445E0,1.2539479E1,9.072204E0,7.857239E1,6.383091E0,6.1563883E0,3.5739534E0,5.4982505E0,5.788357E1,2.0688816E1,3.2813363E0,3.1017547E0,3.051122E0,3.1052663E0,4.7387394E1,1.049618E1,3.0804875E0,1.7608328E1,1.9535938E1,2.7851454E1,4.808555E0,5.6876245E0,1.4589845E1,3.0184839E0,9.307936E0,1.02280035E1,2.1338778E1,6.5126762E0,3.6280415E0,1.0961803E1],"tree_param":{"num_deleted":"0","num_feature":"53","num_nodes":"33","size_leaf_vector":"1"}},{"base_weights":[-2.5663918E-4,-1.3581066E-1,3.9024398E-1,-6.197035E-1,9.379901E-3,5.876506E-1,-2.0263392E-2,-9.798291E-1,1.7240489E-2,6.697031E-2,-1.1247824E-1,8.2228714E-1,-7.125349E-3,-1.9907579E-2,-5.9789475E-2,7.170014E-2,-6.57787E-1,1.4952461E-4,1.0119691E0,6.8146986E-1,-1.4793134E-1,-3.674747E-1,-5.1317144E-2,1.2975819E0,3.4554915E-3,5.2674975E-2,-1.028575E-2,-3.7507582E-2,9.479262E-3,-4.0275548E-2,4.2062565E-3,7.909449E-2,2.434655E-2],"categories":[],"categories_nodes":[],"categories_segments":[],"categories_sizes":[],"default_left":[0,0,0,0,0,0,0,0,0,0,0,0,0,0,0,0,0,0,0,0,0,0,0,0,0,0,0,0,0,0,0,0,0],"id":11,"left_children":[1,3,5,7,9,11,-1,13,-1,-1,15,17,-1,-1,-1,19,21,-1,23,25,27,29,-1,31,-1,-1,-1,-1,-1,-1,-1,-1,-1],"loss_changes":[5.2886863E0,5.216367E0,4.2811804E0,6.288537E0,9.5562725E0,3.7209187E0,0E0,1.1236048E0,0E0,0E0,5.479088E0,2.4938755E0,0E0,0E0,0E0,5.6360655E0,1.0944018E0,0E0,3.422845E0,3.8880138E0,6.485531E0,1.8977785E0,0E0,1.5240364E0,0E0,0E0,0E0,0E0,0E0,0E0,0E0,0E0,0E0],"parents":[2147483647,0,0,1,1,2,2,3,3,4,4,5,5,7,7,10,10,11,11,15,15,16,16,18,18,19,19,20,20,21,21,23,23],"right_children":[2,4,6,8,10,12,-1,14,-1,-1,16,18,-1,-1,-1,20,22,-1,24,26,28,30,-1,32,-1,-1,-1,-1,-1,-1,-1,-1,-1],"split_conditions":[3.7429968E-1,-9.907614E-1,1.3767012E0,5.7245314E-1,-8.406847E-1,1.0239545E0,-2.0263392E-2,-1.2582974E0,1.7240489E-2,6.697031E-2,2.4967639E-1,-9.8746747E-1,-7.125349E-3,-1.9907579E-2,-5.9789475E-2,-9.1748315E-1,1.8116033E-1,1.4952461E-4,8.638176E-1,-2.765E-1,1.6040759E-1,-2.758E-1,-5.1317144E-2,9.189345E-1,3.4554915E-3,5.2674975E-2,-1.028575E-2,-3.7507582E-2,9.479262E-3,-4.0275548E-2,4.2062565E-3,7.909449E-2,2.434655E-2],"split_indices":[45,40,36,39,16,26,0,28,0,0,32,37,0,0,0,22,39,0,16,45,39,38,0,47,0,0,0,0,0,0,0,0,0],"split_type":[0,0,0,0,0,0,0,0,0,0,0,0,0,0,0,0,0,0,0,0,0,0,0,0,0,0,0,0,0,0,0,0,0],"sum_hessian":[9.790985E1,7.316454E1,2.4745308E1,1.6131865E1,5.703268E1,2.0034924E1,4.710383E0,1.1734581E1,4.397284E0,3.9482129E0,5.308447E1,1.5066968E1,4.967956E0,3.9470499E0,7.7875314E0,4.0331123E1,1.2753346E1,3.0234585E0,1.20435095E1,1.0123141E1,3.0207981E1,8.251044E0,4.5023017E0,8.954711E0,3.088799E0,7.000224E0,3.1229174E0,1.0410424E1,1.9797558E1,3.7906048E0,4.460439E0,5.9252515E0,3.029459E0],"tree_param":{"num_deleted":"0","num_feature":"53","num_nodes":"33","size_leaf_vector":"1"}},{"base_weights":[7.5419997E-3,-3.0480614E-1,1.5134259E-1,-6.8033314E-1,1.324697E-1,2.3089653E-1,-5.466713E-1,-1.8970369E-1,-1.0281265E0,4.3614905E-2,-2.6559037E-1,-2.1079129E-2,6.5362793E-1,-4.6677563E-2,-1.0561287E-4,-3.846807E-2,2.1828704E-2,-6.1741095E-2,-2.2355545E-2,-3.95554E-2,1.5038443E-2,-6.8181205E-1,1.5041672E-1,-1.3422391E-2,8.2001823E-1,-3.8413678E-3,-5.2241195E-2,4.2516524E-1,-5.194413E-1,1.0787574E0,-2.8843684E-3,-2.319337E-2,3.4483183E-2,-4.330307E-2,7.0442343E-3,2.1811726E-2,7.575705E-2],"categories":[],"categories_nodes":[],"categories_segments":[],"categories_sizes":[],"default_left":[0,0,0,0,0,0,0,0,0,0,0,0,0,0,0,0,0,0,0,0,0,0,0,0,0,0,0,0,0,0,0,0,0,0,0,0,0],"id":12,"left_children":[1,3,5,7,9,11,13,15,17,-1,19,21,23,-1,-1,-1,-1,-1,-1,-1,-1,25,27,-1,29,-1,-1,31,33,35,-1,-1,-1,-1,-1,-1,-1],"loss_changes":[4.7178564E0,5.5288963E0,4.118235E0,2.8733034E0,4.984679E0,6.962749E0,1.610156E0,3.488906E0,6.8440723E-1,0E0,3.5892994E0,4.843877E0,3.9628906E0,0E0,0E0,0E0,0E0,0E0,0E0,0E0,0E0,1.8530555E0,6.4855666E0,0E0,4.8113413E0,0E0,0E0,6.1254E0,2.491138E0,3.8818226E0,0E0,0E0,0E0,0E0,0E0,0E0,0E0],"parents":[2147483647,0,0,1,1,2,2,3,3,4,4,5,5,6,6,7,7,8,8,10,10,11,11,12,12,21,21,22,22,24,24,27,27,28,28,29,29],"right_children":[2,4,6,8,10,12,14,16,18,-1,20,22,24,-1,-1,-1,-1,-1,-1,-1,-1,26,28,-1,30,-1,-1,32,34,36,-1,-1,-1,-1,-1,-1,-1],"split_conditions":[-5.1597494E-1,2.4302657E-1,1.4428992E0,-5.084784E-1,-7.8029287E-1,1.0487972E-1,1.9994218E0,-8.8114315E-1,1.4754368E-1,4.3614905E-2,-4.574002E-1,-6.636706E-1,-6.7194855E-1,-4.6677563E-2,-1.0561287E-4,-3.846807E-2,2.1828704E-2,-6.1741095E-2,-2.2355545E-2,-3.95554E-2,1.5038443E-2,-3.4404144E-1,-2.7187887E-1,-1.3422391E-2,7.4949825E-1,-3.8413678E-3,-5.2241195E-2,-8.2691795E-1,7.2766924E-1,-8.343557E-1,-2.8843684E-3,-2.319337E-2,3.4483183E-2,-4.330307E-2,7.0442343E-3,2.1811726E-2,7.575705E-2],"split_indices":[33,11,36,23,23,36,31,23,37,0,45,45,24,0,0,0,0,0,0,0,0,2,36,0,5,0,0,23,3,39,0,0,0,0,0,0,0],"split_type":[0,0,0,0,0,0,0,0,0,0,0,0,0,0,0,0,0,0,0,0,0,0,0,0,0,0,0,0,0,0,0,0,0,0,0,0,0],"sum_hessian":[1.0301064E2,3.212107E1,7.088957E1,1.6981623E1,1.5139448E1,6.423751E1,6.6520605E0,7.6853743E0,9.296248E0,4.879364E0,1.0260084E1,4.0842712E1,2.33948E1,3.4714534E0,3.180607E0,3.8725917E0,3.8127825E0,6.0269046E0,3.2693439E0,5.1160936E0,5.14399E0,7.80319E0,3.303952E1,3.4825253E0,1.9912275E1,3.3806834E0,4.422507E0,2.3688679E1,9.350842E0,1.5201851E1,4.7104244E0,5.258852E0,1.8429827E1,5.9276953E0,3.423147E0,6.957466E0,8.244385E0],"tree_param":{"num_deleted":"0","num_feature":"53","num_nodes":"37","size_leaf_vector":"1"}},{"base_weights":[1.1892346E-1,9.3705375E-3,4.7771484E-1,1.680848E-1,-4.6778005E-1,7.461766E-1,-1.9442184E-1,-3.7032592E-1,3.0636784E-1,-5.3239077E-2,-1.6218483E-1,1.3704847E-1,1.1324679E0,-3.645972E-2,1.9818204E-2,-7.4172366E-1,1.7660093E-2,3.925033E-1,-3.3839427E-2,2.575173E-2,-5.7322025E-1,3.73455E-2,-2.0014605E-2,7.672456E-2,1.7898006E-2,-5.369187E-3,-5.794707E-2,-1.6729134E-1,5.1970655E-1,-5.461791E-2,-4.4849226E-3,-3.5254598E-2,2.8360758E-2,5.25158E-2,1.0845981E-2],"categories":[],"categories_nodes":[],"categories_segments":[],"categories_sizes":[],"default_left":[0,0,0,0,0,0,0,0,0,0,0,0,0,0,0,0,0,0,0,0,0,0,0,0,0,0,0,0,0,0,0,0,0,0,0],"id":13,"left_children":[1,3,5,7,9,11,13,15,17,-1,19,21,23,-1,-1,25,-1,27,-1,-1,29,-1,-1,-1,-1,-1,-1,31,33,-1,-1,-1,-1,-1,-1],"loss_changes":[4.007777E0,6.077902E0,4.4499135E0,4.5941186E0,3.482987E0,3.9048157E0,2.6909266E0,3.6883285E0,4.366938E0,0E0,4.312842E0,2.8660932E0,2.6954823E0,0E0,0E0,2.1908598E0,0E0,3.3028188E0,0E0,0E0,2.27535E0,0E0,0E0,0E0,0E0,0E0,0E0,4.0019455E0,5.723608E0,0E0,0E0,0E0,0E0,0E0,0E0],"parents":[2147483647,0,0,1,1,2,2,3,3,4,4,5,5,6,6,7,7,8,8,10,10,11,11,12,12,15,15,17,17,20,20,27,27,28,28],"right_children":[2,4,6,8,10,12,14,16,18,-1,20,22,24,-1,-1,26,-1,28,-1,-1,30,-1,-1,-1,-1,-1,-1,32,34,-1,-1,-1,-1,-1,-1],"split_conditions":[3.7429968E-1,-1.761224E-1,7.295533E-1,-1.0227524E0,-6.377599E-1,-5.4838735E-1,2.9579804E-3,3.5819855E-2,1.5639337E0,-5.3239077E-2,-5.659754E-1,-8.2232857E-1,7.849932E-2,-3.645972E-2,1.9818204E-2,-1.2582974E0,1.7660093E-2,-3.9948544E-1,-3.3839427E-2,2.575173E-2,-3.1671685E-1,3.73455E-2,-2.0014605E-2,7.672456E-2,1.7898006E-2,-5.369187E-3,-5.794707E-2,6.721661E-1,-1.4127174E-1,-5.461791E-2,-4.4849226E-3,-3.5254598E-2,2.8360758E-2,5.25158E-2,1.0845981E-2],"split_indices":[45,45,33,1,8,44,14,33,21,0,47,44,8,0,0,28,0,37,0,0,10,0,0,0,0,0,0,28,26,0,0,0,0,0,0],"split_type":[0,0,0,0,0,0,0,0,0,0,0,0,0,0,0,0,0,0,0,0,0,0,0,0,0,0,0,0,0,0,0,0,0,0,0],"sum_hessian":[1.0107571E2,7.821864E1,2.2857069E1,5.918103E1,1.9037613E1,1.6254581E1,6.602487E0,1.1750794E1,4.7430233E1,5.604515E0,1.3433097E1,6.833644E0,9.420937E0,3.342561E0,3.259926E0,7.748317E0,4.002477E0,4.416193E1,3.2683058E0,4.9781346E0,8.454963E0,3.0181472E0,3.815497E0,5.5558286E0,3.8651083E0,3.5731153E0,4.1752014E0,8.1185875E0,3.6043343E1,3.4700923E0,4.98487E0,4.710003E0,3.408585E0,1.2198186E1,2.3845156E1],"tree_param":{"num_deleted":"0","num_feature":"53","num_nodes":"35","size_leaf_vector":"1"}},{"base_weights":[9.507338E-2,1.5594032E-1,-5.1428205E-1,9.651292E-2,7.113435E-2,-5.2261837E-2,8.216778E-3,2.6365796E-1,-1.710863E-1,-1.07057296E-1,5.007913E-1,2.8335553E-1,-4.0568194E-1,3.121033E-1,-7.0831335E-1,-1.7996486E-2,6.52104E-1,-2.102386E-2,5.6912106E-1,-6.0058113E-2,-1.6402103E-1,-2.3051737E-2,3.378165E-2,-5.2755702E-2,-3.56365E-4,-1.287984E-2,3.864168E-2,5.8817364E-2,1.792307E-3,-2.5291873E-2,1.2360196E-2],"categories":[],"categories_nodes":[],"categories_segments":[],"categories_sizes":[],"default_left":[0,0,0,0,0,0,0,0,0,0,0,0,0,0,0,0,0,0,0,0,0,0,0,0,0,0,0,0,0,0,0],"id":14,"left_children":[1,3,5,7,-1,-1,-1,9,11,13,15,17,19,21,23,-1,25,-1,27,-1,29,-1,-1,-1,-1,-1,-1,-1,-1,-1,-1],"loss_changes":[3.8342433E0,6.8479424E0,3.56762E0,4.0574512E0,0E0,0E0,0E0,4.942252E0,3.8564703E0,5.896242E0,4.674755E0,2.7610114E0,4.3316393E0,4.2358074E0,2.3161983E0,0E0,3.4225492E0,0E0,2.9829607E0,0E0,2.8276248E0,0E0,0E0,0E0,0E0,0E0,0E0,0E0,0E0,0E0,0E0],"parents":[2147483647,0,0,1,1,2,2,3,3,7,7,8,8,9,9,10,10,11,11,12,12,13,13,14,14,16,16,18,18,20,20],"right_children":[2,4,6,8,-1,-1,-1,10,12,14,16,18,20,22,24,-1,26,-1,28,-1,30,-1,-1,-1,-1,-1,-1,-1,-1,-1,-1],"split_conditions":[1.4517977E0,1.1461965E0,3.3115345E-1,2.5897455E-1,7.113435E-2,-5.2261837E-2,8.216778E-3,-5.1597494E-1,-6.7943084E-1,-5.776964E-1,-1.1422486E0,-6.236522E-1,4.2396453E-1,-9.4356644E-1,3.626749E-1,-1.7996486E-2,-8.4669703E-1,-2.102386E-2,6.3668475E-2,-6.0058113E-2,1.20802924E-1,-2.3051737E-2,3.378165E-2,-5.2755702E-2,-3.56365E-4,-1.287984E-2,3.864168E-2,5.8817364E-2,1.792307E-3,-2.5291873E-2,1.2360196E-2],"split_indices":[23,23,33,47,0,0,0,33,8,23,19,0,47,23,10,0,8,0,0,0,36,0,0,0,0,0,0,0,0,0,0],"split_type":[0,0,0,0,0,0,0,0,0,0,0,0,0,0,0,0,0,0,0,0,0,0,0,0,0,0,0,0,0,0,0],"sum_hessian":[1.00215576E2,9.179091E1,8.424668E0,8.870561E1,3.0852935E0,4.4234724E0,4.001196E0,5.4610252E1,3.409536E1,2.1518497E1,3.3091755E1,1.1537636E1,2.2557726E1,1.2962626E1,8.555871E0,4.7415266E0,2.8350227E1,3.195587E0,8.342049E0,4.3309617E0,1.8226765E1,4.059933E0,8.902693E0,5.3868327E0,3.1690388E0,3.188807E0,2.516142E1,3.3367205E0,5.005328E0,9.82773E0,8.399034E0],"tree_param":{"num_deleted":"0","num_feature":"53","num_nodes":"31","size_leaf_vector":"1"}},{"base_weights":[-5.9828805E-3,1.9402078E-1,-2.2279772E-1,6.640644E-2,7.660516E-1,-5.322585E-1,8.770196E-2,-3.6352062E-1,2.8114974E-1,1.6327655E-2,6.3141815E-2,-6.953017E-1,1.0533635E-2,2.6537827E-1,-3.8265754E-2,1.5788624E-1,-9.31402E-1,5.330643E-1,-3.636808E-1,-5.520413E-2,-3.0956936E-1,5.4290276E-2,6.729018E-2,-2.0873053E-2,4.8030786E-2,-2.0311186E-2,-5.973653E-2,1.0042516E0,2.0643242E-1,-4.943311E-2,3.3835296E-2,7.887141E-2,-3.591171E-2,-3.7288144E-2,4.0848717E-1,1.4625807E-2,6.5500274E-2,-2.127149E-2,3.9041575E-2,1.5538308E-2,-8.502176E-3,-4.4930648E-4,6.386995E-2],"categories":[],"categories_nodes":[],"categories_segments":[],"categories_sizes":[],"default_left":[0,0,0,0,0,0,0,0,0,0,0,0,0,0,0,0,0,0,0,0,0,0,0,0,0,0,0,0,0,0,0,0,0,0,0,0,0,0,0,0,0,0,0],"id":15,"left_children":[1,3,5,7,9,11,13,15,17,-1,-1,19,-1,21,-1,23,25,27,29,-1,31,-1,33,-1,-1,-1,-1,35,37,-1,-1,39,-1,-1,41,-1,-1,-1,-1,-1,-1,-1,-1],"loss_changes":[4.5396404E0,3.9254634E0,4.872166E0,4.314977E0,1.7361512E0,3.210269E0,4.1325154E0,4.776784E0,5.2286816E0,0E0,0E0,2.965396E0,0E0,3.5347342E0,0E0,4.5606666E0,5.697632E-1,3.2852597E0,6.717045E0,0E0,1.9902653E0,0E0,5.5610437E0,0E0,0E0,0E0,0E0,1.5822916E0,5.653314E0,0E0,0E0,4.653265E-1,0E0,0E0,5.087447E0,0E0,0E0,0E0,0E0,0E0,0E0,0E0,0E0],"parents":[2147483647,0,0,1,1,2,2,3,3,4,4,5,5,6,6,7,7,8,8,11,11,13,13,15,15,16,16,17,17,18,18,20,20,22,22,27,27,28,28,31,31,34,34],"right_children":[2,4,6,8,10,12,14,16,18,-1,-1,20,-1,22,-1,24,26,28,30,-1,32,-1,34,-1,-1,-1,-1,36,38,-1,-1,40,-1,-1,42,-1,-1,-1,-1,-1,-1,-1,-1],"split_conditions":[9.398455E-2,-2.3599544E-1,-6.1782454E-3,-5.1597494E-1,1.0172494E-4,1.2098159E0,2.04225E0,-7.5167996E-1,3.0124047E-1,1.6327655E-2,6.3141815E-2,-4.309613E-1,1.0533635E-2,-1.1194085E0,-3.8265754E-2,4.1777927E-1,-4.741234E-1,-7.442678E-1,3.2184368E-1,-5.520413E-2,-3.28333E-1,5.4290276E-2,-7.620954E-1,-2.0873053E-2,4.8030786E-2,-2.0311186E-2,-5.973653E-2,-4.9138823E-1,7.60829E-1,-4.943311E-2,3.3835296E-2,-2.634314E-1,-3.591171E-2,-3.7288144E-2,4.3525928E-1,1.4625807E-2,6.5500274E-2,-2.127149E-2,3.9041575E-2,1.5538308E-2,-8.502176E-3,-4.4930648E-4,6.386995E-2],"split_indices":[47,47,36,33,28,42,23,33,33,0,0,43,0,26,0,10,43,22,31,0,4,0,26,0,0,0,0,43,42,0,0,5,0,0,4,0,0,0,0,0,0,0,0],"split_type":[0,0,0,0,0,0,0,0,0,0,0,0,0,0,0,0,0,0,0,0,0,0,0,0,0,0,0,0,0,0,0,0,0,0,0,0,0,0,0,0,0,0,0],"sum_hessian":[1.0269056E2,5.347083E1,4.921973E1,4.4630337E1,8.840492E0,2.4293407E1,2.4926321E1,1.4635835E1,2.9994505E1,5.570065E0,3.2704268E0,1.997403E1,4.3193784E0,2.1199532E1,3.7267907E0,8.006524E0,6.62931E0,2.1693052E1,8.301452E0,8.793156E0,1.1180873E1,3.2514555E0,1.7948074E1,4.9433684E0,3.0631557E0,3.063054E0,3.566256E0,8.031924E0,1.3661128E1,5.2171316E0,3.08432E0,6.146015E0,5.0348577E0,4.954961E0,1.2993114E1,3.001566E0,5.0303583E0,6.62867E0,7.0324574E0,3.053149E0,3.0928662E0,9.444914E0,3.5482006E0],"tree_param":{"num_deleted":"0","num_feature":"53","num_nodes":"43","size_leaf_vector":"1"}},{"base_weights":[-2.2535974E-2,-7.4527484E-1,3.4594193E-2,-9.900209E-3,-5.526821E-2,5.862313E-1,-5.4362256E-2,-5.467731E-3,9.3631536E-1,-1.8577398E-1,3.5259014E-1,1.7532717E-2,6.2465694E-2,-3.322068E-1,1.7519097E-1,6.857852E-2,6.2880844E-2,-5.5534905E-1,7.869991E-3,-2.4118185E-2,4.0369585E-1,-3.2783825E-2,3.432328E-1,-3.437545E-2,1.0469709E-2,1.3554222E-2,-4.6392616E-2,4.5757852E-2,-5.3105503E-3,3.5522547E-2,-1.6515985E-2],"categories":[],"categories_nodes":[],"categories_segments":[],"categories_sizes":[],"default_left":[0,0,0,0,0,0,0,0,0,0,0,0,0,0,0,0,0,0,0,0,0,0,0,0,0,0,0,0,0,0,0],"id":16,"left_children":[1,3,5,-1,-1,7,9,-1,11,13,15,-1,-1,17,19,-1,21,23,25,-1,27,-1,29,-1,-1,-1,-1,-1,-1,-1,-1],"loss_changes":[4.10887E0,1.2174468E0,4.575863E0,0E0,0E0,3.2543569E0,4.3788176E0,0E0,1.1594424E0,3.315403E0,5.8275423E0,0E0,0E0,3.3572955E0,2.9652402E0,0E0,3.5783637E0,2.8417463E0,4.8058586E0,0E0,3.8078358E0,0E0,3.3587217E0,0E0,0E0,0E0,0E0,0E0,0E0,0E0,0E0],"parents":[2147483647,0,0,1,1,2,2,5,5,6,6,8,8,9,9,10,10,13,13,14,14,16,16,17,17,18,18,20,20,22,22],"right_children":[2,4,6,-1,-1,8,10,-1,12,14,16,-1,-1,18,20,-1,22,24,26,-1,28,-1,30,-1,-1,-1,-1,-1,-1,-1,-1],"split_conditions":[-6.386648E-1,-5.666022E-1,-5.36473E-1,-9.900209E-3,-5.526821E-2,-8.314735E-1,4.8570773E-1,-5.467731E-3,-2.2545187E-1,9.6763355E-1,6.335165E-1,1.7532717E-2,6.2465694E-2,-1.1872449E-1,-1.3335956E0,6.857852E-2,-7.565289E-1,1.2115785E0,1.14389E0,-2.4118185E-2,-3.064442E-1,-3.2783825E-2,9.5341414E-1,-3.437545E-2,1.0469709E-2,1.3554222E-2,-4.6392616E-2,4.5757852E-2,-5.3105503E-3,3.5522547E-2,-1.6515985E-2],"split_indices":[4,45,4,0,0,23,45,0,27,27,45,0,0,4,42,0,44,22,39,0,40,0,36,0,0,0,0,0,0,0,0],"split_type":[0,0,0,0,0,0,0,0,0,0,0,0,0,0,0,0,0,0,0,0,0,0,0,0,0,0,0,0,0,0,0],"sum_hessian":[9.788759E1,6.288479E0,9.159911E1,3.110681E0,3.1777976E0,1.19437E1,7.965541E1,4.228894E0,7.714805E0,6.06228E1,1.9032614E1,3.4255192E0,4.2892857E0,4.3184E1,1.74388E1,3.386643E0,1.5645971E1,2.5692675E1,1.7491323E1,4.2107697E0,1.3228032E1,4.015434E0,1.1630537E1,2.1992935E1,3.69974E0,1.4205636E1,3.285687E0,6.207179E0,7.020853E0,7.491448E0,4.139089E0],"tree_param":{"num_deleted":"0","num_feature":"53","num_nodes":"31","size_leaf_vector":"1"}},{"base_weights":[2.447561E-2,-1.22849025E-1,4.3491635E-1,-2.1992837E-1,7.661444E-1,6.3331294E-1,-3.532517E-2,3.2427254E-1,-2.8725308E-1,8.746929E-3,5.8069576E-2,8.836332E-1,-1.3285193E-2,3.8413793E-2,-1.2753335E-2,-4.2521125E-1,1.4445075E-1,7.309953E-4,1.1503012E0,1.5583418E-1,-6.2016594E-1,7.1210134E-1,-3.177242E-1,1.3754568E0,2.37785E-2,2.5887597E-2,-1.5685173E-2,-5.240824E-3,-3.9563794E-2,9.253719E-3,5.404026E-2,8.8113705E-3,-4.653921E-2,4.583054E-2,8.7931916E-2],"categories":[],"categories_nodes":[],"categories_segments":[],"categories_sizes":[],"default_left":[0,0,0,0,0,0,0,0,0,0,0,0,0,0,0,0,0,0,0,0,0,0,0,0,0,0,0,0,0,0,0,0,0,0,0],"id":17,"left_children":[1,3,5,7,9,11,-1,13,15,-1,-1,17,-1,-1,-1,19,21,-1,23,25,27,29,31,33,-1,-1,-1,-1,-1,-1,-1,-1,-1,-1,-1],"loss_changes":[6.1342406E0,6.6222486E0,6.5123644E0,2.5916905E0,1.5692763E0,5.4880877E0,0E0,2.2480106E0,3.707358E0,0E0,0E0,4.268182E0,0E0,0E0,0E0,5.3805532E0,4.3115764E0,0E0,1.4934139E0,2.2896538E0,3.0146732E0,1.2178977E0,2.972649E0,1.5864944E-1,0E0,0E0,0E0,0E0,0E0,0E0,0E0,0E0,0E0,0E0,0E0],"parents":[2147483647,0,0,1,1,2,2,3,3,4,4,5,5,7,7,8,8,11,11,15,15,16,16,18,18,19,19,20,20,21,21,22,22,23,23],"right_children":[2,4,6,8,10,12,-1,14,16,-1,-1,18,-1,-1,-1,20,22,-1,24,26,28,30,32,34,-1,-1,-1,-1,-1,-1,-1,-1,-1,-1,-1],"split_conditions":[1.6197975E-1,7.592096E-1,1.1606479E0,-1.0910226E0,1.3373523E0,1.5894282E0,-3.532517E-2,2.7648438E-2,3.146171E-1,8.746929E-3,5.8069576E-2,-9.3494576E-1,-1.3285193E-2,3.8413793E-2,-1.2753335E-2,-8.048715E-1,7.2278756E-1,7.309953E-4,2.944804E-1,1.4918208E-1,-3.369559E-1,-6.155298E-1,4.1068858E-1,-2.6788202E-1,2.37785E-2,2.5887597E-2,-1.5685173E-2,-5.240824E-3,-3.9563794E-2,9.253719E-3,5.404026E-2,8.8113705E-3,-4.653921E-2,4.583054E-2,8.7931916E-2],"split_indices":[44,38,39,36,22,44,0,12,36,0,0,16,0,0,0,44,32,0,12,26,48,44,4,11,0,0,0,0,0,0,0,0,0,0,0],"split_type":[0,0,0,0,0,0,0,0,0,0,0,0,0,0,0,0,0,0,0,0,0,0,0,0,0,0,0,0,0,0,0,0,0,0,0],"sum_hessian":[9.9562416E1,7.378024E1,2.5782177E1,6.719505E1,6.585186E0,2.2343653E1,3.4385233E0,6.977533E0,6.021752E1,3.2165356E0,3.3686502E0,1.7490696E1,4.8529587E0,3.765525E0,3.212008E0,4.5645714E1,1.4571808E1,4.3546515E0,1.3136044E1,1.1517996E1,3.412772E1,6.2969875E0,8.274821E0,9.070665E0,4.0653777E0,6.4464293E0,5.071567E0,8.908785E0,2.5218933E1,3.2102296E0,3.0867577E0,4.977178E0,3.2976427E0,5.671434E0,3.3992317E0],"tree_param":{"num_deleted":"0","num_feature":"53","num_nodes":"35","size_leaf_vector":"1"}},{"base_weights":[-5.4674223E-2,-1.0422381E-1,3.876617E-2,1.1598955E-1,-2.341078E-1,-4.500486E-1,2.7899277E-1,4.798552E-2,-4.3336138E-1,-5.6514133E-2,1.003692E-2,5.108096E-1,-4.5486823E-1,-5.043479E-1,2.6088625E-1,-7.0098394E-1,1.6020918E-1,2.088153E-1,1.1327404E0,-2.7085193E-3,-3.6851596E-2,7.2043496E-3,-5.4961886E-2,-3.556416E-1,7.0985985E-1,-8.5267717E-1,-2.601438E-4,7.9487365E-1,-3.0491918E-2,2.7508188E-2,-2.4966987E-2,1.7654104E-2,8.0738865E-2,3.2793756E-3,-4.339067E-2,7.439343E-2,1.1630568E-2,-4.8139445E-2,-7.95352E-3,1.11583015E-2,5.798278E-2],"categories":[],"categories_nodes":[],"categories_segments":[],"categories_sizes":[],"default_left":[0,0,0,0,0,0,0,0,0,0,0,0,0,0,0,0,0,0,0,0,0,0,0,0,0,0,0,0,0,0,0,0,0,0,0,0,0,0,0,0,0],"id":18,"left_children":[1,3,-1,5,7,9,11,13,15,-1,-1,17,19,21,23,25,27,29,31,-1,-1,-1,-1,33,35,37,-1,39,-1,-1,-1,-1,-1,-1,-1,-1,-1,-1,-1,-1,-1],"loss_changes":[4.3254366E0,2.8381023E0,0E0,3.5513067E0,3.5140371E0,4.071277E0,5.241541E0,3.2626615E0,5.913888E0,0E0,0E0,4.0546627E0,8.1905127E-1,3.1474988E0,5.7547083E0,2.672019E0,6.4292574E0,4.2887335E0,2.151534E0,0E0,0E0,0E0,0E0,2.0076895E0,4.048496E0,1.4364405E0,0E0,1.2223115E0,0E0,0E0,0E0,0E0,0E0,0E0,0E0,0E0,0E0,0E0,0E0,0E0,0E0],"parents":[2147483647,0,0,1,1,3,3,4,4,5,5,6,6,7,7,8,8,11,11,12,12,13,13,14,14,15,15,16,16,17,17,18,18,23,23,24,24,25,25,27,27],"right_children":[2,4,-1,6,8,10,12,14,16,-1,-1,18,20,22,24,26,28,30,32,-1,-1,-1,-1,34,36,38,-1,40,-1,-1,-1,-1,-1,-1,-1,-1,-1,-1,-1,-1,-1],"split_conditions":[1.394437E0,-2.988788E-1,3.876617E-2,-5.289012E-1,-3.8910824E-1,-9.6845174E-1,9.027701E-1,-6.710952E-1,6.3625693E-1,-5.6514133E-2,1.003692E-2,4.3850332E-1,3.215539E-1,-2.634314E-1,-6.115013E-1,6.726563E-1,8.263271E-1,1.12068586E-1,-7.738588E-1,-2.7085193E-3,-3.6851596E-2,7.2043496E-3,-5.4961886E-2,-8.2232857E-1,-9.6078046E-2,7.791191E-1,-2.601438E-4,7.788524E-2,-3.0491918E-2,2.7508188E-2,-2.4966987E-2,1.7654104E-2,8.0738865E-2,3.2793756E-3,-4.339067E-2,7.439343E-2,1.1630568E-2,-4.8139445E-2,-7.95352E-3,1.11583015E-2,5.798278E-2],"split_indices":[42,12,0,32,4,5,31,29,38,0,0,31,19,5,44,39,10,31,10,0,0,0,0,44,16,45,0,23,0,0,0,0,0,0,0,0,0,0,0,0,0],"split_type":[0,0,0,0,0,0,0,0,0,0,0,0,0,0,0,0,0,0,0,0,0,0,0,0,0,0,0,0,0,0,0,0,0,0,0,0,0,0,0,0,0],"sum_hessian":[1.02210266E2,9.727738E1,4.932882E0,3.612901E1,6.1148376E1,7.6842E0,2.8444809E1,2.562663E1,3.5521744E1,3.3968523E0,4.287348E0,2.1847439E1,6.5973706E0,6.7488904E0,1.887774E1,2.4358355E1,1.1163388E1,1.5605529E1,6.241909E0,3.218621E0,3.3787496E0,3.5916996E0,3.1571908E0,8.042166E0,1.0835575E1,1.981321E1,4.545146E0,6.101972E0,5.061416E0,1.06804085E1,4.925121E0,3.0466547E0,3.1952543E0,4.891311E0,3.150854E0,3.314573E0,7.5210023E0,1.6763823E1,3.0493867E0,3.004665E0,3.0973074E0],"tree_param":{"num_deleted":"0","num_feature":"53","num_nodes":"41","size_leaf_vector":"1"}},{"base_weights":[6.7353845E-2,-1.7468395E-2,6.8410236E-1,-1.4696866E-1,3.2267988E-1,1.1047992E0,-1.0106586E-2,-5.059436E-1,4.61845E-2,5.065578E-1,-2.8078413E-2,2.4721574E-2,7.004458E-2,-2.1519426E-1,-5.1760036E-2,5.5082012E-2,-9.40725E-2,1.7533192E-1,6.515387E-2,-6.2968946E-1,3.373678E-1,-2.5557452E-1,3.4539808E-2,-2.4772708E-1,3.903234E-2,-8.723895E-3,-4.5756266E-2,5.5301722E-2,-2.9932654E-2,-3.6455188E-2,8.0751826E-4,-4.0026393E-2,2.7255226E-2],"categories":[],"categories_nodes":[],"categories_segments":[],"categories_sizes":[],"default_left":[0,0,0,0,0,0,0,0,0,0,0,0,0,0,0,0,0,0,0,0,0,0,0,0,0,0,0,0,0,0,0,0,0],"id":19,"left_children":[1,3,5,7,9,11,-1,13,15,17,-1,-1,-1,19,-1,-1,21,23,-1,25,27,29,-1,31,-1,-1,-1,-1,-1,-1,-1,-1,-1],"loss_changes":[5.3242555E0,4.0226216E0,4.81002E0,4.6029143E0,4.3813057E0,8.42947E-1,0E0,3.3456311E0,6.5961876E0,5.4134645E0,0E0,0E0,0E0,3.9295545E0,0E0,0E0,5.2005954E0,4.3571825E0,0E0,1.0905747E0,6.135533E0,4.3352118E0,0E0,4.963638E0,0E0,0E0,0E0,0E0,0E0,0E0,0E0,0E0,0E0],"parents":[2147483647,0,0,1,1,2,2,3,3,4,4,5,5,7,7,8,8,9,9,13,13,16,16,17,17,19,19,20,20,21,21,23,23],"right_children":[2,4,6,8,10,12,-1,14,16,18,-1,-1,-1,20,-1,-1,22,24,-1,26,28,30,-1,32,-1,-1,-1,-1,-1,-1,-1,-1,-1],"split_conditions":[7.592096E-1,1.6197975E-1,1.108195E0,-4.4267672E-1,1.6659706E0,1.2053127E0,-1.0106586E-2,-3.723819E-1,-3.5511935E-1,3.003953E-1,-2.8078413E-2,2.4721574E-2,7.004458E-2,-6.859316E-1,-5.1760036E-2,5.5082012E-2,1.2040279E0,6.017794E-1,6.515387E-2,-1.4683256E-1,-7.100544E-2,-9.738006E-2,3.4539808E-2,7.7559445E-3,3.903234E-2,-8.723895E-3,-4.5756266E-2,5.5301722E-2,-2.9932654E-2,-3.6455188E-2,8.0751826E-4,-4.0026393E-2,2.7255226E-2],"split_indices":[38,44,10,43,44,42,0,32,43,45,0,0,0,23,0,0,28,16,0,11,47,43,0,10,0,0,0,0,0,0,0,0,0],"split_type":[0,0,0,0,0,0,0,0,0,0,0,0,0,0,0,0,0,0,0,0,0,0,0,0,0,0,0,0,0,0,0,0,0],"sum_hessian":[1.0054654E2,8.924432E1,1.1302213E1,6.504754E1,2.4196783E1,7.4968324E0,3.8053803E0,2.218932E1,4.285822E1,2.0384907E1,3.811876E0,3.3209178E0,4.175915E0,1.5229522E1,6.9597974E0,4.2232404E0,3.863498E1,1.5259498E1,5.1254096E0,8.622167E0,6.607356E0,3.260105E1,6.0339293E0,9.32967E0,5.929828E0,3.943832E0,4.678334E0,3.528277E0,3.079079E0,1.127285E1,2.1328201E1,5.4912176E0,3.838452E0],"tree_param":{"num_deleted":"0","num_feature":"53","num_nodes":"33","size_leaf_vector":"1"}},{"base_weights":[-1.3421289E-2,-9.755188E-2,4.792192E-1,1.8224894E-1,-2.7687478E-1,9.2014176E-1,-2.9313192E-2,-4.321403E-2,3.1015927E-1,-2.7498158E-2,-5.701358E-1,1.0783542E-2,6.463972E-2,-3.948608E-2,4.4916432E-2,-1.7956254E-1,5.6200916E-1,2.732414E-1,-4.947109E-1,-9.7374684E-1,-2.7102083E-1,-3.4225248E-2,1.7347207E-2,-1.7943896E-2,8.0112654E-1,-2.0444099E-2,5.6925833E-2,-7.536866E-1,-2.1349275E-3,-2.4477014E-2,-5.9809756E-2,1.9377333E-1,-7.741206E-1,6.6742405E-2,2.352499E-2,-3.2499112E-2,1.0195526E-2,-4.7506567E-2,-1.7072706E-2,-1.4286898E-2,3.758153E-2,-8.450939E-3,-5.618882E-2],"categories":[],"categories_nodes":[],"categories_segments":[],"categories_sizes":[],"default_left":[0,0,0,0,0,0,0,0,0,0,0,0,0,0,0,0,0,0,0,0,0,0,0,0,0,0,0,0,0,0,0,0,0,0,0,0,0,0,0,0,0,0,0],"id":20,"left_children":[1,3,5,7,9,11,13,-1,15,17,19,-1,-1,-1,-1,21,23,25,27,29,31,-1,-1,-1,33,35,-1,37,-1,-1,-1,39,41,-1,-1,-1,-1,-1,-1,-1,-1,-1,-1],"loss_changes":[4.291396E0,4.4811826E0,3.4144647E0,4.9657164E0,3.949026E0,1.8535533E0,6.3419843E0,0E0,4.0485554E0,4.3995156E0,2.7377682E0,0E0,0E0,0E0,0E0,3.3288527E0,4.995187E0,4.8790402E0,1.4007418E0,5.127926E-1,3.8133154E0,0E0,0E0,0E0,2.4214926E0,2.2862325E0,0E0,3.0091906E-1,0E0,0E0,0E0,2.6069632E0,1.4441185E0,0E0,0E0,0E0,0E0,0E0,0E0,0E0,0E0,0E0,0E0],"parents":[2147483647,0,0,1,1,2,2,3,3,4,4,5,5,6,6,8,8,9,9,10,10,15,15,16,16,17,17,18,18,19,19,20,20,24,24,25,25,27,27,31,31,32,32],"right_children":[2,4,6,8,10,12,14,-1,16,18,20,-1,-1,-1,-1,22,24,26,28,30,32,-1,-1,-1,34,36,-1,38,-1,-1,-1,40,42,-1,-1,-1,-1,-1,-1,-1,-1,-1,-1],"split_conditions":[6.671159E-1,-3.140179E-1,-1.9010854E-1,-1.1814704E0,-3.657044E-1,1.2053127E0,5.726372E-1,-4.321403E-2,-1.4206342E-1,-2.5674137E-1,-1.5655129E-1,1.0783542E-2,6.463972E-2,-3.948608E-2,4.4916432E-2,-6.282158E-1,-1.2177904E0,-4.4574168E-1,4.4583988E-1,2.533896E-1,-2.5573066E-1,-3.4225248E-2,1.7347207E-2,-1.7943896E-2,1.5418455E-1,-9.3762004E-1,5.6925833E-2,-7.2782063E-1,-2.1349275E-3,-2.4477014E-2,-5.9809756E-2,3.897149E-1,-8.619741E-2,6.6742405E-2,2.352499E-2,-3.2499112E-2,1.0195526E-2,-4.7506567E-2,-1.7072706E-2,-1.4286898E-2,3.758153E-2,-8.450939E-3,-5.618882E-2],"split_indices":[38,12,28,40,32,42,24,0,33,33,42,0,0,0,0,12,12,33,10,28,4,0,0,0,33,0,0,31,0,0,0,28,26,0,0,0,0,0,0,0,0,0,0],"split_type":[0,0,0,0,0,0,0,0,0,0,0,0,0,0,0,0,0,0,0,0,0,0,0,0,0,0,0,0,0,0,0,0,0,0,0,0,0,0,0,0,0,0,0],"sum_hessian":[1.0141358E2,8.7305916E1,1.410767E1,3.4093258E1,5.3212654E1,7.1226106E0,6.9850593E0,3.0861607E0,3.10071E1,2.9349152E1,2.38635E1,3.0104094E0,4.112201E0,3.920235E0,3.0648243E0,1.0627996E1,2.0379103E1,1.8108246E1,1.1240907E1,9.197465E0,1.4666037E1,5.271916E0,5.3560805E0,4.097602E0,1.62815E1,1.4248496E1,3.8597498E0,6.7221303E0,4.5187764E0,3.902823E0,5.294642E0,7.9428186E0,6.7232175E0,5.0661035E0,1.1215397E1,3.2452416E0,1.1003254E1,3.6689098E0,3.0532203E0,4.5336623E0,3.4091566E0,3.0054607E0,3.7177567E0],"tree_param":{"num_deleted":"0","num_feature":"53","num_nodes":"43","size_leaf_vector":"1"}},{"base_weights":[-2.4824927E-2,-1.15735896E-1,4.43496E-1,-2.7634371E-2,-6.709918E-1,7.0789224E-1,-2.100095E-2,5.2166826E-1,-1.1544976E-1,-5.1450845E-2,-5.0069606E-3,-1.097705E-2,1.0066293E0,-1.64235E-2,9.509244E-1,-4.9175736E-1,3.29391E-2,1.9792391E-2,7.47661E-2,1.8386817E-2,6.339562E-2,-4.208888E-2,-8.768339E-1,-5.982726E-1,1.6034602E-1,-1.9720605E-2,2.5110353E-2,-7.1216435E-3,-5.922956E-2,-4.790924E-3,-5.4642964E-2,-7.991756E-3,2.7092094E-2],"categories":[],"categories_nodes":[],"categories_segments":[],"categories_sizes":[],"default_left":[0,0,0,0,0,0,0,0,0,0,0,0,0,0,0,0,0,0,0,0,0,0,0,0,0,0,0,0,0,0,0,0,0],"id":21,"left_children":[1,3,5,7,9,11,-1,13,15,-1,-1,-1,17,-1,19,21,23,-1,-1,-1,-1,25,27,29,31,-1,-1,-1,-1,-1,-1,-1,-1],"loss_changes":[4.4635563E0,4.265728E0,4.190919E0,3.7565925E0,2.3393197E0,3.9415288E0,0E0,4.232812E0,3.7510898E0,0E0,0E0,0E0,2.493228E0,0E0,9.008813E-1,3.249382E0,4.0290756E0,0E0,0E0,0E0,0E0,2.0784545E0,2.1305904E0,1.9889848E0,5.1535378E0,0E0,0E0,0E0,0E0,0E0,0E0,0E0,0E0],"parents":[2147483647,0,0,1,1,2,2,3,3,4,4,5,5,7,7,8,8,12,12,14,14,15,15,16,16,21,21,22,22,23,23,24,24],"right_children":[2,4,6,8,10,12,-1,14,16,-1,-1,-1,18,-1,20,22,24,-1,-1,-1,-1,26,28,30,32,-1,-1,-1,-1,-1,-1,-1,-1],"split_conditions":[1.155195E0,7.475021E-1,5.267503E-1,-7.052126E-1,5.780333E-1,-1.0026845E0,-2.100095E-2,-1.2491432E0,-3.9948544E-1,-5.1450845E-2,-5.0069606E-3,-1.097705E-2,-2.6966217E-1,-1.64235E-2,-6.842703E-1,-2.8957546E-1,-7.051198E-1,1.9792391E-2,7.47661E-2,1.8386817E-2,6.339562E-2,-4.6044323E-1,-6.03234E-1,1.9685293E-2,-4.4267672E-1,-1.9720605E-2,2.5110353E-2,-7.1216435E-3,-5.922956E-2,-4.790924E-3,-5.4642964E-2,-7.991756E-3,2.7092094E-2],"split_indices":[22,33,8,38,4,28,0,39,37,0,0,0,8,0,8,12,24,0,0,0,0,12,32,32,43,0,0,0,0,0,0,0,0],"split_type":[0,0,0,0,0,0,0,0,0,0,0,0,0,0,0,0,0,0,0,0,0,0,0,0,0,0,0,0,0,0,0,0,0],"sum_hessian":[1.0263301E2,8.6579056E1,1.6053951E1,7.5628914E1,1.0950145E1,1.2428682E1,3.6252692E0,9.743139E0,6.588577E1,6.2362943E0,4.7138505E0,3.0926409E0,9.336041E0,3.3477466E0,6.3953924E0,1.7978674E1,4.79071E1,4.9541817E0,4.3818593E0,3.0127292E0,3.382663E0,8.805481E0,9.173193E0,7.425114E0,4.0481987E1,5.5125647E0,3.2929158E0,3.1408916E0,6.0323014E0,4.275419E0,3.1496952E0,2.2325617E1,1.815637E1],"tree_param":{"num_deleted":"0","num_feature":"53","num_nodes":"33","size_leaf_vector":"1"}},{"base_weights":[-5.6459714E-2,8.738988E-2,-2.5709173E-1,3.211831E-1,-2.1237604E-1,-3.908519E-1,2.3503182E-2,5.1523536E-2,1.2732261E-1,2.8641758E-2,-4.4440186E-1,-6.3582724E-1,2.2517605E-1,-5.457381E-2,6.347447E-1,-1.3225108E-1,-9.167613E-1,-1.0383263E0,-3.3325887E-1,5.0807364E-2,-2.6252326E-1,1.6010553E-1,-4.5706015E-2,5.7824492E-2,-5.5523997E-4,2.306766E-1,-3.536525E-2,-2.1328207E-2,-5.6657463E-2,-1.9546216E-2,-6.313171E-2,7.644939E-3,-4.3882556E-2,-3.1189559E-2,1.0771674E-2,1.9383455E-2,-2.9315889E-2,3.7148878E-2,-1.5706105E-2,-2.8249199E-2,2.5593594E-2],"categories":[],"categories_nodes":[],"categories_segments":[],"categories_sizes":[],"default_left":[0,0,0,0,0,0,0,0,0,0,0,0,0,0,0,0,0,0,0,0,0,0,0,0,0,0,0,0,0,0,0,0,0,0,0,0,0,0,0,0,0],"id":22,"left_children":[1,3,5,7,9,11,-1,-1,13,-1,15,17,19,21,23,25,27,29,31,-1,33,35,-1,-1,-1,37,-1,-1,-1,-1,-1,39,-1,-1,-1,-1,-1,-1,-1,-1,-1],"loss_changes":[2.9070954E0,4.200227E0,4.2679486E0,4.4782214E0,5.0709763E0,5.5779257E0,0E0,0E0,2.5698702E0,0E0,2.9706473E0,2.8237324E0,4.504273E0,4.047339E0,2.4819262E0,3.0421E0,3.8378525E-1,1.059763E0,3.0375195E0,0E0,1.4449289E0,3.2451081E0,0E0,0E0,0E0,2.8042147E0,0E0,0E0,0E0,0E0,0E0,3.4750378E0,0E0,0E0,0E0,0E0,0E0,0E0,0E0,0E0,0E0],"parents":[2147483647,0,0,1,1,2,2,3,3,4,4,5,5,8,8,10,10,11,11,12,12,13,13,14,14,15,15,16,16,17,17,18,18,20,20,21,21,25,25,31,31],"right_children":[2,4,6,8,10,12,-1,-1,14,-1,16,18,20,22,24,26,28,30,32,-1,34,36,-1,-1,-1,38,-1,-1,-1,-1,-1,40,-1,-1,-1,-1,-1,-1,-1,-1,-1],"split_conditions":[7.9067826E-2,6.170373E-1,9.979407E-1,-3.363537E-1,5.0521755E-1,7.199838E-1,2.3503182E-2,5.1523536E-2,1.802955E-1,2.8641758E-2,-3.5325623E-1,2.6528817E-1,-1.2153703E0,-4.328489E-1,5.109038E-1,3.3648896E-1,-4.9769327E-2,4.941052E-1,-5.024987E-3,5.0807364E-2,1.2083354E0,3.0124047E-1,-4.5706015E-2,5.7824492E-2,-5.5523997E-4,-6.4120877E-1,-3.536525E-2,-2.1328207E-2,-5.6657463E-2,-1.9546216E-2,-6.313171E-2,-6.982835E-1,-4.3882556E-2,-3.1189559E-2,1.0771674E-2,1.9383455E-2,-2.9315889E-2,3.7148878E-2,-1.5706105E-2,-2.8249199E-2,2.5593594E-2],"split_indices":[12,27,27,37,25,38,0,0,42,0,12,37,27,42,10,4,15,22,32,0,42,33,0,0,0,10,0,0,0,0,0,31,0,0,0,0,0,0,0,0,0],"split_type":[0,0,0,0,0,0,0,0,0,0,0,0,0,0,0,0,0,0,0,0,0,0,0,0,0,0,0,0,0,0,0,0,0,0,0,0,0,0,0,0,0],"sum_hessian":[9.894959E1,5.7958675E1,4.0990917E1,3.252239E1,2.5436285E1,3.5012806E1,5.9781117E0,6.054595E0,2.6467794E1,5.466834E0,1.996945E1,2.5027857E1,9.984948E0,2.0140461E1,6.3273344E0,1.279444E1,7.1750107E0,9.696775E0,1.533108E1,3.3950922E0,6.5898557E0,1.6766588E1,3.3738713E0,3.0625916E0,3.2647429E0,8.21111E0,4.5833297E0,3.1072521E0,4.0677586E0,3.2009468E0,6.495829E0,1.0033783E1,5.2972975E0,3.579294E0,3.0105617E0,1.3217557E1,3.5490317E0,4.0442953E0,4.166815E0,4.6417975E0,5.391986E0],"tree_param":{"num_deleted":"0","num_feature":"53","num_nodes":"41","size_leaf_vector":"1"}},{"base_weights":[-6.213331E-2,-2.027433E-1,2.8347173E-1,-9.575502E-1,-9.0887204E-2,4.3909687E-1,-3.782506E-2,-1.9531585E-2,-5.875165E-2,-2.3036431E-1,6.0603696E-1,6.519086E-2,2.174016E-1,1.1406436E-1,-4.4506308E-1,6.590752E-2,-1.8303048E-2,-2.271582E-1,7.65475E-1,-1.4446439E-1,4.6623133E-2,6.4103976E-2,-6.465679E-1,-7.296694E-1,1.6350072E-2,7.489101E-2,-6.319642E-3,1.0276402E-2,-4.1083828E-2,2.146783E-2,-2.6855743E-2,-4.810243E-2,-7.267012E-3,-8.601181E-3,-5.42258E-2],"categories":[],"categories_nodes":[],"categories_segments":[],"categories_sizes":[],"default_left":[0,0,0,0,0,0,0,0,0,0,0,0,0,0,0,0,0,0,0,0,0,0,0,0,0,0,0,0,0,0,0,0,0,0,0],"id":23,"left_children":[1,3,5,7,9,11,-1,-1,-1,13,15,-1,17,19,21,-1,-1,23,25,27,-1,29,31,33,-1,-1,-1,-1,-1,-1,-1,-1,-1,-1,-1],"loss_changes":[5.0788074E0,6.163316E0,5.235955E0,7.0611286E-1,6.5143366E0,4.89025E0,0E0,0E0,0E0,4.1451983E0,8.243614E0,0E0,5.7001014E0,4.801515E0,3.5618224E0,0E0,0E0,3.9406505E0,6.9734163E0,4.347007E0,0E0,2.5668163E0,3.7616873E0,1.2542813E0,0E0,0E0,0E0,0E0,0E0,0E0,0E0,0E0,0E0,0E0,0E0],"parents":[2147483647,0,0,1,1,2,2,3,3,4,4,5,5,9,9,10,10,12,12,13,13,14,14,17,17,18,18,19,19,21,21,22,22,23,23],"right_children":[2,4,6,8,10,12,-1,-1,-1,14,16,-1,18,20,22,-1,-1,24,26,28,-1,30,32,34,-1,-1,-1,-1,-1,-1,-1,-1,-1,-1,-1],"split_conditions":[1.6197975E-1,-1.126115E0,1.0907931E0,9.398455E-2,7.041192E-1,-4.424896E-1,-3.782506E-2,-1.9531585E-2,-5.875165E-2,-1.1890067E-1,-6.803901E-2,6.519086E-2,-3.0738539E-1,-3.851226E-1,-5.350828E-1,6.590752E-2,-1.8303048E-2,-8.002082E-2,-1.0593817E-1,-6.139577E-1,4.6623133E-2,-4.2484525E-1,1.5148352E-1,-4.025959E-1,1.6350072E-2,7.489101E-2,-6.319642E-3,1.0276402E-2,-4.1083828E-2,2.146783E-2,-2.6855743E-2,-4.810243E-2,-7.267012E-3,-8.601181E-3,-5.42258E-2],"split_indices":[44,15,33,47,37,4,0,0,0,16,8,0,45,15,4,0,0,33,0,14,0,44,45,36,0,0,0,0,0,0,0,0,0,0,0],"split_type":[0,0,0,0,0,0,0,0,0,0,0,0,0,0,0,0,0,0,0,0,0,0,0,0,0,0,0,0,0,0,0,0,0,0,0],"sum_hessian":[1.0232917E2,7.303011E1,2.9299057E1,8.449846E0,6.458027E1,2.5987917E1,3.3111408E0,3.1180594E0,5.3317866E0,5.436877E1,1.0211496E1,4.307078E0,2.168084E1,2.1056993E1,3.331178E1,5.688432E0,4.523064E0,1.2294174E1,9.386664E0,1.6627811E1,4.4291806E0,9.638602E0,2.3673176E1,6.2814503E0,6.012724E0,4.7812147E0,4.605449E0,1.1421523E1,5.2062893E0,6.173769E0,3.464833E0,1.3964383E1,9.708793E0,3.0201035E0,3.2613468E0],"tree_param":{"num_deleted":"0","num_feature":"53","num_nodes":"35","size_leaf_vector":"1"}},{"base_weights":[-5.155993E-2,-1.3558125E-1,4.4930077E-1,1.7719753E-1,-3.3955026E-1,9.1373795E-1,1.7284038E-2,-4.6584186E-1,3.5098988E-1,-8.967859E-2,-6.895977E-1,1.887642E-2,6.071956E-2,-3.0844644E-2,3.0968944E-2,-3.832506E-2,5.7162525E-4,4.9577504E-1,-2.0913959E-2,-4.7927952E-1,2.4913357E-1,-5.2754874E-3,-8.611835E-1,3.0687156E-1,6.657251E-2,2.3320174E-2,-7.6720107E-1,6.775849E-1,-3.667473E-1,-4.9851786E-2,-1.2132852E-2,2.9851371E-2,-2.2248536E-2,-5.509392E-2,-5.8319476E-3,4.09002E-3,6.644752E-2,-4.6588626E-2,1.2934848E-2],"categories":[],"categories_nodes":[],"categories_segments":[],"categories_sizes":[],"default_left":[0,0,0,0,0,0,0,0,0,0,0,0,0,0,0,0,0,0,0,0,0,0,0,0,0,0,0,0,0,0,0,0,0,0,0,0,0,0,0],"id":24,"left_children":[1,3,5,7,9,11,13,15,17,19,21,-1,-1,-1,-1,-1,-1,23,-1,25,27,-1,29,31,-1,-1,33,35,37,-1,-1,-1,-1,-1,-1,-1,-1,-1,-1],"loss_changes":[4.3569856E0,5.686359E0,2.9731987E0,4.127094E0,4.6370625E0,6.957898E-1,3.7182283E0,1.1532551E0,3.380657E0,4.4089046E0,2.1366768E0,0E0,0E0,0E0,0E0,0E0,0E0,3.4488697E0,0E0,4.5665092E0,5.008486E0,0E0,1.1898899E0,4.89699E0,0E0,0E0,2.5337477E0,4.155951E0,3.0856652E0,0E0,0E0,0E0,0E0,0E0,0E0,0E0,0E0,0E0,0E0],"parents":[2147483647,0,0,1,1,2,2,3,3,4,4,5,5,6,6,7,7,8,8,9,9,10,10,17,17,19,19,20,20,22,22,23,23,26,26,27,27,28,28],"right_children":[2,4,6,8,10,12,14,16,18,20,22,-1,-1,-1,-1,-1,-1,24,-1,26,28,-1,30,32,-1,-1,34,36,38,-1,-1,-1,-1,-1,-1,-1,-1,-1,-1],"split_conditions":[6.812934E-1,-2.988788E-1,7.724678E-1,-5.453894E-1,-3.627806E-1,5.0171995E-1,-2.5774813E-1,-3.619218E-1,1.3759732E0,1.6040759E-1,-6.90532E-1,1.887642E-2,6.071956E-2,-3.0844644E-2,3.0968944E-2,-3.832506E-2,5.7162525E-4,8.978003E-1,-2.0913959E-2,-9.788355E-1,1.1499064E0,-5.2754874E-3,1.1620471E0,5.324009E-1,6.657251E-2,2.3320174E-2,3.034637E-1,-1.9992416E-1,1.010931E0,-4.9851786E-2,-1.2132852E-2,2.9851371E-2,-2.2248536E-2,-5.509392E-2,-5.8319476E-3,4.09002E-3,6.644752E-2,-4.6588626E-2,1.2934848E-2],"split_indices":[38,12,39,32,31,12,45,39,8,39,24,0,0,0,0,0,0,8,0,28,42,0,14,33,0,0,28,26,26,0,0,0,0,0,0,0,0,0,0],"split_type":[0,0,0,0,0,0,0,0,0,0,0,0,0,0,0,0,0,0,0,0,0,0,0,0,0,0,0,0,0,0,0,0,0,0,0,0,0,0,0],"sum_hessian":[1.0108567E2,8.718873E1,1.3896943E1,3.4466656E1,5.272207E1,6.159815E0,7.7371283E0,6.975723E0,2.7490934E1,3.1495834E1,2.1226234E1,3.023375E0,3.13644E0,3.7562022E0,3.9809258E0,3.9079256E0,3.0677972E0,2.343561E1,4.0553236E0,1.445705E1,1.7038784E1,5.1863847E0,1.6039848E1,2.0229881E1,3.2057297E0,3.2295716E0,1.1227479E1,9.989309E0,7.0494747E0,1.2649565E1,3.390284E0,1.4745222E1,5.4846582E0,6.955523E0,4.2719555E0,5.805122E0,4.184188E0,3.4463086E0,3.603166E0],"tree_param":{"num_deleted":"0","num_feature":"53","num_nodes":"39","size_leaf_vector":"1"}},{"base_weights":[-2.5329854E-2,1.556037E-1,-2.3225556E-1,3.662516E-1,-1.8399185E-1,-5.241046E-1,5.4212864E-2,-1.6870266E-1,7.15733E-1,4.5197493E-1,-4.8180944E-1,-7.108981E-1,2.593112E-2,2.983884E-1,-5.438299E-1,-4.0965876E-1,2.339829E-2,9.573948E-1,-2.1063055E-4,-3.744735E-3,4.269378E-2,-7.6827455E-1,1.8789304E-2,-5.932345E-2,-4.0336066E-1,5.870389E-1,-1.5256508E-2,-4.536159E-2,-1.0140783E-4,2.867911E-3,-3.93146E-2,7.533137E-2,4.9390477E-1,-5.4714568E-2,-4.6383578E-1,1.8435797E-2,-6.9028383E-1,8.036297E-1,-2.1899687E-3,5.6500446E-2,-3.2116824E-3,-4.0733423E-3,-3.6030184E-2,-5.3503748E-2,-1.9786076E-3,6.0940225E-2,2.1416983E-2],"categories":[],"categories_nodes":[],"categories_segments":[],"categories_sizes":[],"default_left":[0,0,0,0,0,0,0,0,0,0,0,0,0,0,0,0,0,0,0,0,0,0,0,0,0,0,0,0,0,0,0,0,0,0,0,0,0,0,0,0,0,0,0,0,0,0,0],"id":25,"left_children":[1,3,5,7,9,11,13,15,17,19,21,23,-1,25,27,29,-1,31,-1,-1,-1,33,-1,-1,35,37,-1,-1,-1,-1,-1,-1,39,-1,41,-1,43,45,-1,-1,-1,-1,-1,-1,-1,-1,-1],"loss_changes":[3.8921673E0,4.0408883E0,4.0788126E0,6.592434E0,4.371387E0,5.0611296E0,3.8647835E0,2.414242E0,3.6800165E0,1.6542513E0,4.0769258E0,2.571352E0,0E0,3.4280171E0,1.515245E0,1.9875348E0,0E0,3.283825E0,0E0,0E0,0E0,6.722703E-1,0E0,0E0,3.395553E0,1.8056774E0,0E0,0E0,0E0,0E0,0E0,0E0,3.6474285E0,0E0,7.1522844E-1,0E0,2.5984268E0,9.8894453E-1,0E0,0E0,0E0,0E0,0E0,0E0,0E0,0E0,0E0],"parents":[2147483647,0,0,1,1,2,2,3,3,4,4,5,5,6,6,7,7,8,8,9,9,10,10,11,11,13,13,14,14,15,15,17,17,21,21,24,24,25,25,32,32,34,34,36,36,37,37],"right_children":[2,4,6,8,10,12,14,16,18,20,22,24,-1,26,28,30,-1,32,-1,-1,-1,34,-1,-1,36,38,-1,-1,-1,-1,-1,-1,40,-1,42,-1,44,46,-1,-1,-1,-1,-1,-1,-1,-1,-1],"split_conditions":[9.398455E-2,-3.3336094E-1,2.7508354E-2,-7.987155E-1,-5.5328053E-1,1.2635268E0,3.3975267E-1,-2.3599544E-1,7.455691E-2,-7.564707E-1,6.671159E-1,-7.7141005E-1,2.593112E-2,8.910481E-1,2.2991055E-1,-4.968558E-1,2.339829E-2,-2.0586295E-1,-2.1063055E-4,-3.744735E-3,4.269378E-2,-4.2565393E-1,1.8789304E-2,-5.932345E-2,3.774651E-2,9.660335E-1,-1.5256508E-2,-4.536159E-2,-1.0140783E-4,2.867911E-3,-3.93146E-2,7.533137E-2,-4.3876734E-1,-5.4714568E-2,-1.15713775E-1,1.8435797E-2,9.332927E-1,9.189345E-1,-2.1899687E-3,5.6500446E-2,-3.2116824E-3,-4.0733423E-3,-3.6030184E-2,-5.3503748E-2,-1.9786076E-3,6.0940225E-2,2.1416983E-2],"split_indices":[47,23,36,36,12,5,1,47,33,39,38,15,0,33,4,24,0,40,0,0,0,33,0,0,28,31,0,0,0,0,0,0,24,0,37,0,28,47,0,0,0,0,0,0,0,0,0],"split_type":[0,0,0,0,0,0,0,0,0,0,0,0,0,0,0,0,0,0,0,0,0,0,0,0,0,0,0,0,0,0,0,0,0,0,0,0,0,0,0,0,0,0,0,0,0,0,0],"sum_hessian":[1.0199273E2,5.4546177E1,4.7446552E1,3.3615997E1,2.0930178E1,2.3091648E1,2.4354904E1,1.3487635E1,2.0128365E1,6.510301E0,1.4419876E1,1.9853361E1,3.2382882E0,1.7649733E1,6.7051706E0,1.0043202E1,3.4444323E0,1.482297E1,5.305393E0,3.1692445E0,3.3410563E0,1.088731E1,3.5325665E0,6.6743264E0,1.3179034E1,1.1957848E1,5.6918855E0,3.609622E0,3.0955486E0,4.8620615E0,5.1811414E0,5.753957E0,9.069014E0,4.004511E0,6.8827987E0,3.4934642E0,9.68557E0,8.697691E0,3.2601569E0,3.7596169E0,5.3093967E0,3.294312E0,3.5884867E0,5.70901E0,3.9765599E0,3.062302E0,5.635389E0],"tree_param":{"num_deleted":"0","num_feature":"53","num_nodes":"47","size_leaf_vector":"1"}},{"base_weights":[1.836376E-2,-1.04434356E-1,3.7367448E-1,6.419464E-2,-4.7288996E-1,-1.4278348E-1,6.571141E-1,2.4033064E-1,-5.507847E-1,3.9002437E-2,-8.193567E-1,-4.454673E-2,1.742452E-2,8.57183E-1,-9.282349E-3,-4.251386E-2,7.0655227E-1,1.6282061E-2,-9.223736E-1,-2.9226804E-2,3.7526613E-1,-5.6397974E-2,-1.2010104E-2,5.018053E-3,1.1416833E0,-2.8925613E-1,4.7830313E-2,9.824972E-1,2.615894E-3,-5.8036607E-2,-1.8102525E-2,-9.426028E-3,4.2103548E-2,1.6145898E-2,7.750356E-2,1.7635863E-2,-3.0547315E-2,2.2403775E-2,7.2391376E-2],"categories":[],"categories_nodes":[],"categories_segments":[],"categories_sizes":[],"default_left":[0,0,0,0,0,0,0,0,0,0,0,0,0,0,0,0,0,0,0,0,0,0,0,0,0,0,0,0,0,0,0,0,0,0,0,0,0,0,0],"id":26,"left_children":[1,3,5,7,9,11,13,15,17,19,21,-1,-1,23,-1,25,27,-1,29,-1,31,-1,-1,-1,33,35,-1,37,-1,-1,-1,-1,-1,-1,-1,-1,-1,-1,-1],"loss_changes":[4.3438153E0,4.6345744E0,3.8352757E0,5.7344193E0,4.179523E0,3.9411902E0,2.9716911E0,5.4233513E0,4.149239E0,2.3987E0,2.2298117E0,0E0,0E0,2.826335E0,0E0,6.7847466E0,2.7468834E0,0E0,7.230673E-1,0E0,2.096137E0,0E0,0E0,0E0,2.7865334E0,4.7461753E0,0E0,2.0483932E0,0E0,0E0,0E0,0E0,0E0,0E0,0E0,0E0,0E0,0E0,0E0],"parents":[2147483647,0,0,1,1,2,2,3,3,4,4,5,5,6,6,7,7,8,8,9,9,10,10,13,13,15,15,16,16,18,18,20,20,24,24,25,25,27,27],"right_children":[2,4,6,8,10,12,14,16,18,20,22,-1,-1,24,-1,26,28,-1,30,-1,32,-1,-1,-1,34,36,-1,38,-1,-1,-1,-1,-1,-1,-1,-1,-1,-1,-1],"split_conditions":[2.5503665E-1,-2.8197882E-1,-4.8324203E-1,7.6747954E-1,-4.0098542E-1,-2.19587E-1,6.3331974E-1,-1.2001853E-1,-4.6256074E-1,-1.6969547E-1,2.8652596E-1,-4.454673E-2,1.742452E-2,-7.4175763E-1,-9.282349E-3,6.095139E-1,2.1719515E-1,1.6282061E-2,2.3798114E-2,-2.9226804E-2,-1.5189678E-2,-5.6397974E-2,-1.2010104E-2,5.018053E-3,-1.0428804E0,-3.9347148E-1,4.7830313E-2,4.2396453E-1,2.615894E-3,-5.8036607E-2,-1.8102525E-2,-9.426028E-3,4.2103548E-2,1.6145898E-2,7.750356E-2,1.7635863E-2,-3.0547315E-2,2.2403775E-2,7.2391376E-2],"split_indices":[24,24,39,15,47,32,44,44,4,24,37,0,0,44,0,37,37,0,42,0,28,0,0,0,27,11,0,47,0,0,0,0,0,0,0,0,0,0,0],"split_type":[0,0,0,0,0,0,0,0,0,0,0,0,0,0,0,0,0,0,0,0,0,0,0,0,0,0,0,0,0,0,0,0,0,0,0,0,0,0,0],"sum_hessian":[9.766248E1,7.310345E1,2.4559036E1,5.0717587E1,2.2385857E1,8.878212E0,1.5680824E1,3.989926E1,1.0818326E1,9.393991E0,1.2991866E1,3.196622E0,5.6815906E0,1.2658599E1,3.022225E0,2.5399101E1,1.4500159E1,3.2579079E0,7.560418E0,3.0324852E0,6.3615065E0,7.8574324E0,5.1344333E0,3.828053E0,8.830546E0,2.0938602E1,4.460499E0,9.845672E0,4.6544876E0,4.5523367E0,3.0080812E0,3.1514583E0,3.2100482E0,3.5346801E0,5.295866E0,6.9575267E0,1.3981074E1,5.496258E0,4.349414E0],"tree_param":{"num_deleted":"0","num_feature":"53","num_nodes":"39","size_leaf_vector":"1"}},{"base_weights":[-5.5496786E-2,1.2690863E-1,-2.752186E-1,-4.4036433E-1,2.2257258E-1,4.5622557E-2,-4.8009753E-1,4.017639E-3,-5.134638E-2,-5.510022E-2,4.4232503E-1,3.5290474E-1,-3.5488695E-2,-6.2916917E-1,1.6128505E-2,-3.997729E-1,3.8614818E-1,9.06505E-1,1.797309E-1,-2.0808466E-2,6.1932296E-1,-3.290107E-1,-9.980361E-1,6.9509E-4,-7.469805E-1,5.8303148E-2,-1.445351E-1,6.299945E-2,7.804355E-3,-3.319261E-2,3.9503393E-1,8.451173E-1,1.3053456E-3,-8.336043E-1,2.8062364E-1,-2.8655803E-2,-5.8847245E-2,-5.4591365E-2,-1.0683464E-2,-3.2860335E-2,1.9593157E-2,4.8201505E-2,2.115661E-3,1.5094417E-2,5.5861074E-2,-1.4735474E-2,-5.6249034E-2,4.0030044E-2,-1.3631438E-2],"categories":[],"categories_nodes":[],"categories_segments":[],"categories_sizes":[],"default_left":[0,0,0,0,0,0,0,0,0,0,0,0,0,0,0,0,0,0,0,0,0,0,0,0,0,0,0,0,0,0,0,0,0,0,0,0,0,0,0,0,0,0,0,0,0,0,0,0,0],"id":27,"left_children":[1,3,5,7,9,11,13,-1,-1,15,17,19,-1,21,-1,23,25,27,29,-1,31,33,35,-1,37,-1,39,-1,-1,-1,41,43,-1,45,47,-1,-1,-1,-1,-1,-1,-1,-1,-1,-1,-1,-1,-1,-1],"loss_changes":[4.144368E0,3.1754918E0,3.099915E0,2.6845298E0,3.0259268E0,4.698283E0,3.632729E0,0E0,0E0,3.594639E0,3.197578E0,3.1854553E0,0E0,2.3856993E0,0E0,1.9050796E0,4.4850082E0,2.3800907E0,3.6869307E0,0E0,1.453258E0,4.8503804E0,1.24165535E-1,0E0,1.0890546E0,0E0,2.2088783E0,0E0,0E0,0E0,3.0998552E0,8.372531E-1,0E0,9.972949E-1,2.3886073E0,0E0,0E0,0E0,0E0,0E0,0E0,0E0,0E0,0E0,0E0,0E0,0E0,0E0,0E0],"parents":[2147483647,0,0,1,1,2,2,3,3,4,4,5,5,6,6,9,9,10,10,11,11,13,13,15,15,16,16,17,17,18,18,20,20,21,21,22,22,24,24,26,26,30,30,31,31,33,33,34,34],"right_children":[2,4,6,8,10,12,14,-1,-1,16,18,20,-1,22,-1,24,26,28,30,-1,32,34,36,-1,38,-1,40,-1,-1,-1,42,44,-1,46,48,-1,-1,-1,-1,-1,-1,-1,-1,-1,-1,-1,-1,-1,-1],"split_conditions":[9.398455E-2,-7.906791E-1,-3.843155E-1,-7.7449936E-1,-4.6070936E-1,3.3777913E-1,1.2475191E0,4.017639E-3,-5.134638E-2,3.6457372E-1,-1.761224E-1,-4.5459747E-1,-3.5488695E-2,1.7127377E-1,1.6128505E-2,-6.294761E-1,-7.2175515E-1,-3.3923754E-1,-6.5852714E-1,-2.0808466E-2,8.8875985E-1,-7.622627E-1,-3.4449E-1,6.9509E-4,-5.9684515E-1,5.8303148E-2,-7.177201E-1,6.299945E-2,7.804355E-3,-3.319261E-2,-4.7488576E-1,-1.1514941E-1,1.3053456E-3,-4.309613E-1,3.3896282E-1,-2.8655803E-2,-5.8847245E-2,-5.4591365E-2,-1.0683464E-2,-3.2860335E-2,1.9593157E-2,4.8201505E-2,2.115661E-3,1.5094417E-2,5.5861074E-2,-1.4735474E-2,-5.6249034E-2,4.0030044E-2,-1.3631438E-2],"split_indices":[47,11,11,22,45,26,26,0,0,11,45,33,0,2,0,45,23,4,36,0,31,2,32,0,32,0,45,0,0,0,11,28,0,43,11,0,0,0,0,0,0,0,0,0,0,0,0,0,0],"split_type":[0,0,0,0,0,0,0,0,0,0,0,0,0,0,0,0,0,0,0,0,0,0,0,0,0,0,0,0,0,0,0,0,0,0,0,0,0,0,0,0,0,0,0,0,0,0,0,0,0],"sum_hessian":[1.01534904E2,5.570935E1,4.5825554E1,7.5190816E0,4.819027E1,1.8161655E1,2.76639E1,4.4402733E0,3.0788085E0,2.1620499E1,2.6569773E1,1.3288816E1,4.872839E0,2.351318E1,4.15072E0,1.2191409E1,9.429089E0,8.714063E0,1.785571E1,3.2744155E0,1.0014401E1,1.4007111E1,9.506069E0,6.001264E0,6.1901455E0,3.3331962E0,6.0958924E0,5.4620953E0,3.251968E0,3.2069917E0,1.4648718E1,6.945947E0,3.0684543E0,7.4627867E0,6.5443234E0,4.0619855E0,5.4440837E0,3.1233082E0,3.066837E0,3.0017233E0,3.0941694E0,4.942512E0,9.706206E0,3.0220952E0,3.923852E0,3.3248966E0,4.13789E0,3.1431432E0,3.4011803E0],"tree_param":{"num_deleted":"0","num_feature":"53","num_nodes":"49","size_leaf_vector":"1"}},{"base_weights":[-4.9994625E-2,-1.4258978E-1,2.8362903E-1,-2.8500336E-1,1.7372198E-1,-2.4130279E-1,5.188228E-1,-4.5150998E-1,1.0029275E-1,-1.653613E-1,7.939345E-1,1.675117E-2,-4.0100377E-2,-1.8005645E-2,8.2328033E-1,-2.709697E-1,-5.13571E-2,-4.5799342E-1,5.980727E-1,-6.958016E-1,2.5125262E-1,7.024121E-2,-1.3433935E-2,1.2399305E-2,5.747779E-2,-4.754774E-2,-5.514978E-2,-4.4132706E-2,1.1109966E-2,5.813405E-2,-2.3185113E-3,-5.6686975E-2,-2.1484361E-3,3.4295194E-2,-2.5606612E-2,-1.243918E-2,3.658214E-2],"categories":[],"categories_nodes":[],"categories_segments":[],"categories_sizes":[],"default_left":[0,0,0,0,0,0,0,0,0,0,0,0,0,0,0,0,0,0,0,0,0,0,0,0,0,0,0,0,0,0,0,0,0,0,0,0,0],"id":28,"left_children":[1,3,5,7,9,11,13,15,17,19,21,-1,-1,-1,23,25,-1,27,29,31,33,-1,-1,-1,-1,-1,35,-1,-1,-1,-1,-1,-1,-1,-1,-1,-1],"loss_changes":[3.0419092E0,3.505426E0,2.7724867E0,3.463369E0,5.27084E0,2.633215E0,4.343973E0,3.6067858E0,4.9691586E0,3.8494165E0,6.096859E0,0E0,0E0,0E0,1.8806996E0,4.323271E0,0E0,2.660007E0,3.4615476E0,2.118415E0,3.6852424E0,0E0,0E0,0E0,0E0,0E0,3.7918954E0,0E0,0E0,0E0,0E0,0E0,0E0,0E0,0E0,0E0,0E0],"parents":[2147483647,0,0,1,1,2,2,3,3,4,4,5,5,6,6,7,7,8,8,9,9,10,10,14,14,15,15,17,17,18,18,19,19,20,20,26,26],"right_children":[2,4,6,8,10,12,14,16,18,20,22,-1,-1,-1,24,26,-1,28,30,32,34,-1,-1,-1,-1,-1,36,-1,-1,-1,-1,-1,-1,-1,-1,-1,-1],"split_conditions":[1.0038517E0,3.7429968E-1,-5.105838E-1,1.0170606E0,-8.406519E-2,-8.022329E-1,-5.255423E-1,6.846316E-1,-1.9632986E-1,-3.230561E-1,5.793319E-1,1.675117E-2,-4.0100377E-2,-1.8005645E-2,-1.1060429E0,-3.6553478E-1,-5.13571E-2,1.3101575E-1,-3.4433058E-1,3.0825332E-1,8.121067E-1,7.024121E-2,-1.3433935E-2,1.2399305E-2,5.747779E-2,-4.754774E-2,1.1342907E0,-4.4132706E-2,1.1109966E-2,5.813405E-2,-2.3185113E-3,-5.6686975E-2,-2.1484361E-3,3.4295194E-2,-2.5606612E-2,-1.243918E-2,3.658214E-2],"split_indices":[27,45,33,26,38,33,23,26,29,43,11,0,0,0,5,38,0,33,24,32,43,0,0,0,0,0,2,0,0,0,0,0,0,0,0,0,0],"split_type":[0,0,0,0,0,0,0,0,0,0,0,0,0,0,0,0,0,0,0,0,0,0,0,0,0,0,0,0,0,0,0,0,0,0,0,0,0],"sum_hessian":[9.616022E1,7.571782E1,2.04424E1,5.227909E1,2.3438726E1,6.3171344E0,1.4125264E1,3.6383865E1,1.58952265E1,1.5627967E1,7.810759E0,3.3136554E0,3.0034792E0,3.5870478E0,1.0538217E1,2.8816605E1,7.567259E0,7.5299373E0,8.36529E0,6.580025E0,9.047941E0,4.755059E0,3.0557003E0,4.450707E0,6.0875096E0,6.1219378E0,2.2694668E1,4.4524884E0,3.0774486E0,4.030196E0,4.335093E0,3.4972982E0,3.0827272E0,5.8299932E0,3.217948E0,1.876123E1,3.9334378E0],"tree_param":{"num_deleted":"0","num_feature":"53","num_nodes":"37","size_leaf_vector":"1"}},{"base_weights":[1.2345468E-2,-4.176917E-2,4.8276305E-2,4.8761317E-1,-4.028908E-2,1.3888186E-1,6.222401E-2,-2.3050378E-1,2.3019278E-1,-2.6057899E-2,4.5913243E-1,-3.0424795E-1,3.315554E-2,4.7025338E-1,-2.2199829E-1,4.607978E-2,1.4694005E-3,-3.646954E-1,1.7093722E-2,-1.1876724E-2,6.400487E-1,2.0941779E-2,-7.455854E-1,-8.189933E-3,-3.3152495E-2,4.165889E-2,-1.1875763E-2,-5.278301E-2,-1.3854118E-2],"categories":[],"categories_nodes":[],"categories_segments":[],"categories_sizes":[],"default_left":[0,0,0,0,0,0,0,0,0,0,0,0,0,0,0,0,0,0,0,0,0,0,0,0,0,0,0,0,0],"id":29,"left_children":[1,-1,3,5,7,9,-1,11,13,-1,15,17,-1,19,21,-1,-1,23,-1,-1,25,-1,27,-1,-1,-1,-1,-1,-1],"loss_changes":[3.0854132E0,0E0,3.7881453E0,4.1360292E0,4.2475758E0,2.8395095E0,0E0,3.3889601E0,3.8127332E0,0E0,1.7246672E0,1.8964233E0,0E0,2.8723545E0,4.515122E0,0E0,0E0,2.4068074E0,0E0,0E0,3.3378549E0,0E0,7.611847E-1,0E0,0E0,0E0,0E0,0E0,0E0],"parents":[2147483647,0,0,2,2,3,3,4,4,5,5,7,7,8,8,10,10,11,11,13,13,14,14,17,17,20,20,22,22],"right_children":[2,-1,4,6,8,10,-1,12,14,-1,16,18,-1,20,22,-1,-1,24,-1,-1,26,-1,28,-1,-1,-1,-1,-1,-1],"split_conditions":[-1.6232222E0,-4.176917E-2,-1.0729125E0,-3.4414536E-1,-1.2001853E-1,-7.138506E-2,6.222401E-2,1.5496637E0,4.883192E-1,-2.6057899E-2,-2.3127492E-1,6.2338865E-1,3.315554E-2,-7.0448345E-1,9.398455E-2,4.607978E-2,1.4694005E-3,-2.5674137E-1,1.7093722E-2,-1.1876724E-2,8.910481E-1,2.0941779E-2,5.428054E-1,-8.189933E-3,-3.3152495E-2,4.165889E-2,-1.1875763E-2,-5.278301E-2,-1.3854118E-2],"split_indices":[10,0,22,39,44,33,0,5,28,0,45,33,0,45,47,0,0,33,0,0,33,0,48,0,0,0,0,0,0],"split_type":[0,0,0,0,0,0,0,0,0,0,0,0,0,0,0,0,0,0,0,0,0,0,0,0,0,0,0,0,0],"sum_hessian":[9.897121E1,3.1196015E0,9.585161E1,1.5324972E1,8.0526634E1,1.1301314E1,4.0236573E0,4.7365173E1,3.3161465E1,3.487074E0,7.814241E0,4.436366E1,3.001512E0,2.1635565E1,1.1525899E1,3.2125654E0,4.6016755E0,4.0966625E1,3.397036E0,4.108874E0,1.7526691E1,5.2726326E0,6.253267E0,2.5407505E1,1.5559119E1,1.4406723E1,3.1199682E0,3.0087135E0,3.2445533E0],"tree_param":{"num_deleted":"0","num_feature":"53","num_nodes":"29","size_leaf_vector":"1"}},{"base_weights":[2.2558419E-2,-1.6340275E-1,1.8419483E-1,-5.7435435E-1,9.2035756E-2,5.354257E-1,-6.803083E-2,8.810132E-3,-7.565042E-1,3.4192675E-1,-4.0169862E-1,2.034846E-1,1.1594943E0,4.854018E-2,-2.385976E-1,-9.450824E-1,-5.454317E-3,1.1547381E-1,5.0058514E-2,2.264357E-2,-8.141564E-1,-1.3704806E-2,5.1126564E-1,2.0012252E-2,8.3796605E-2,3.2988135E-2,-7.6246786E-1,-1.6989898E-2,-5.646652E-2,3.6280927E-1,-2.3766218E-2,-5.4999825E-2,-1.4852749E-2,5.5014964E-2,-7.069604E-3,-4.2676052E-1,3.0422726E-1,-5.5735152E-2,-1.6752739E-2,-3.4657088E-3,4.487062E-2,7.3812925E-4,-3.6037456E-2,-1.8029042E-2,3.534664E-2],"categories":[],"categories_nodes":[],"categories_segments":[],"categories_sizes":[],"default_left":[0,0,0,0,0,0,0,0,0,0,0,0,0,0,0,0,0,0,0,0,0,0,0,0,0,0,0,0,0,0,0,0,0,0,0,0,0,0,0,0,0,0,0,0,0],"id":30,"left_children":[1,3,5,7,9,11,13,-1,15,17,19,21,23,-1,25,27,-1,29,-1,-1,31,-1,33,-1,-1,35,37,-1,-1,39,-1,-1,-1,-1,-1,41,43,-1,-1,-1,-1,-1,-1,-1,-1],"loss_changes":[3.060133E0,5.029174E0,4.855713E0,2.6364613E0,3.8506129E0,4.497595E0,5.999175E0,0E0,1.7188053E0,2.9481802E0,4.095579E0,2.510969E0,2.3567085E0,0E0,4.1172857E0,8.905201E-1,0E0,2.5697691E0,0E0,0E0,7.801604E-1,0E0,4.060383E0,0E0,0E0,2.6114693E0,1.1111517E0,0E0,0E0,2.8647783E0,0E0,0E0,0E0,0E0,0E0,1.023161E0,3.7620926E0,0E0,0E0,0E0,0E0,0E0,0E0,0E0,0E0],"parents":[2147483647,0,0,1,1,2,2,3,3,4,4,5,5,6,6,8,8,9,9,10,10,11,11,12,12,14,14,15,15,17,17,20,20,22,22,25,25,26,26,29,29,35,35,36,36],"right_children":[2,4,6,8,10,12,14,-1,16,18,20,22,24,-1,26,28,-1,30,-1,-1,32,-1,34,-1,-1,36,38,-1,-1,40,-1,-1,-1,-1,-1,42,44,-1,-1,-1,-1,-1,-1,-1,-1],"split_conditions":[-5.0412185E-2,-5.4301596E-1,-6.4076996E-1,-1.1941283E0,1.3489512E-1,-8.619741E-2,-3.401647E-1,8.810132E-3,1.4940703E0,3.5135671E-1,-6.4775074E-1,-7.72068E-1,1.7793575E-1,4.854018E-2,-2.1914136E-1,-4.8029524E-1,-5.454317E-3,5.9241825E-1,5.0058514E-2,2.264357E-2,4.2396453E-1,-1.3704806E-2,-6.187617E-1,2.0012252E-2,8.3796605E-2,5.764974E-1,4.5984796E-1,-1.6989898E-2,-5.646652E-2,-7.730551E-1,-2.3766218E-2,-5.4999825E-2,-1.4852749E-2,5.5014964E-2,-7.069604E-3,-6.217547E-1,-6.526401E-1,-5.5735152E-2,-1.6752739E-2,-3.4657088E-3,4.487062E-2,7.3812925E-4,-3.6037456E-2,-1.8029042E-2,3.534664E-2],"split_indices":[28,44,5,42,8,26,19,0,26,32,32,11,1,0,45,26,0,33,0,0,47,0,38,0,0,42,10,0,0,14,0,0,0,0,0,45,45,0,0,0,0,0,0,0,0],"split_type":[0,0,0,0,0,0,0,0,0,0,0,0,0,0,0,0,0,0,0,0,0,0,0,0,0,0,0,0,0,0,0,0,0,0,0,0,0,0,0,0,0,0,0,0,0],"sum_hessian":[9.980595E1,4.64057E1,5.3400246E1,1.7309511E1,2.909619E1,2.185031E1,3.1549938E1,3.3867786E0,1.3922732E1,1.9522728E1,9.573461E0,1.5129181E1,6.721128E0,3.787936E0,2.7762001E1,1.0426078E1,3.4966538E0,1.5405898E1,4.116831E0,3.0845692E0,6.4888916E0,5.9719744E0,9.157207E0,3.439501E0,3.281627E0,1.8900566E1,8.861435E0,3.0968075E0,7.329271E0,1.1131597E1,4.274302E0,3.4529545E0,3.0359368E0,4.452701E0,4.704506E0,6.800458E0,1.2100108E1,3.976413E0,4.8850217E0,6.6371145E0,4.494482E0,3.0978205E0,3.7026377E0,4.6040683E0,7.4960403E0],"tree_param":{"num_deleted":"0","num_feature":"53","num_nodes":"45","size_leaf_vector":"1"}},{"base_weights":[-3.1691298E-2,1.0892647E-2,-4.523748E-2,-8.730904E-2,4.447997E-1,-5.1297783E-4,-6.3699037E-1,-1.2792468E-2,8.172639E-1,-5.9422517E-1,1.0784307E-1,-3.9309457E-2,-9.687076E-3,7.3471785E-2,3.4949768E-1,-8.451403E-1,2.134267E-3,-8.7881885E-2,4.268238E-1,-1.469335E-2,4.1132007E-2,-5.231994E-2,-2.0995347E-2,-1.5240532E-2,2.188672E-2,3.7119515E-2,-7.865577E-3],"categories":[],"categories_nodes":[],"categories_segments":[],"categories_sizes":[],"default_left":[0,0,0,0,0,0,0,0,0,0,0,0,0,0,0,0,0,0,0,0,0,0,0,0,0,0,0],"id":31,"left_children":[1,3,-1,5,7,9,11,-1,13,15,17,-1,-1,-1,19,21,-1,23,25,-1,-1,-1,-1,-1,-1,-1,-1],"loss_changes":[3.6930127E0,4.105923E0,0E0,3.7529855E0,4.8488855E0,4.4992657E0,5.570984E-1,0E0,3.1004376E0,1.7610636E0,3.730254E0,0E0,0E0,0E0,2.7411222E0,2.274189E-1,0E0,4.4075336E0,4.2942696E0,0E0,0E0,0E0,0E0,0E0,0E0,0E0,0E0],"parents":[2147483647,0,0,1,1,3,3,4,4,5,5,6,6,8,8,9,9,10,10,14,14,15,15,17,17,18,18],"right_children":[2,4,-1,6,8,10,12,-1,14,16,18,-1,-1,-1,20,22,-1,24,26,-1,-1,-1,-1,-1,-1,-1,-1],"split_conditions":[2.089285E0,6.7239153E-1,-4.523748E-2,3.7892377E-1,-2.5967482E-1,-1.1547352E0,1.5526551E-1,-1.2792468E-2,8.8875985E-1,2.2496085E-1,3.8794526E-1,-3.9309457E-2,-9.687076E-3,7.3471785E-2,1.140734E0,-3.4525374E-1,2.134267E-3,9.303694E-1,4.235626E-1,-1.469335E-2,4.1132007E-2,-5.231994E-2,-2.0995347E-2,-1.5240532E-2,2.188672E-2,3.7119515E-2,-7.865577E-3],"split_indices":[23,36,0,32,44,16,44,0,31,12,11,0,0,0,31,43,0,27,8,0,0,0,0,0,0,0,0],"split_type":[0,0,0,0,0,0,0,0,0,0,0,0,0,0,0,0,0,0,0,0,0,0,0,0,0,0,0],"sum_hessian":[9.806749E1,9.444824E1,3.619246E0,7.766901E1,1.6779238E1,6.7941765E1,9.7272415E0,5.9325337E0,1.0846704E1,9.793965E0,5.81478E1,6.6987324E0,3.028509E0,3.6359622E0,7.2107415E0,6.79148E0,3.0024853E0,3.6485172E1,2.1662626E1,3.2162654E0,3.9944758E0,3.6182404E0,3.1732397E0,2.6123676E1,1.0361496E1,1.3888657E1,7.7739697E0],"tree_param":{"num_deleted":"0","num_feature":"53","num_nodes":"27","size_leaf_vector":"1"}},{"base_weights":[-1.051732E-2,-3.441031E-1,1.2820259E-1,-1.005157E-1,-8.003695E-1,3.9919868E-2,7.3996824E-1,-5.3807503E-1,2.255111E-1,-1.0808586E-2,-5.5930216E-2,-1.6743536E-1,3.6379787E-1,7.376931E-3,6.406411E-2,-5.0719418E-2,1.29557075E-2,6.850482E-1,-1.6671224E-2,4.4193485E-1,-3.7030885E-1,5.583698E-1,-2.8731702E-2,3.5699427E-3,5.648029E-2,-7.8006326E-3,4.5710403E-2,-5.2013767E-1,1.7844243E-2,7.490686E-1,-1.1976379E-2,-4.0330168E-2,-4.8244274E-3,1.0592415E-2,4.6926048E-2],"categories":[],"categories_nodes":[],"categories_segments":[],"categories_sizes":[],"default_left":[0,0,0,0,0,0,0,0,0,0,0,0,0,0,0,0,0,0,0,0,0,0,0,0,0,0,0,0,0,0,0,0,0,0,0],"id":32,"left_children":[1,3,5,7,9,11,13,15,17,-1,-1,19,21,-1,-1,-1,-1,23,-1,25,27,29,-1,-1,-1,-1,-1,31,-1,33,-1,-1,-1,-1,-1],"loss_changes":[4.5706735E0,3.1428049E0,3.741167E0,2.9817464E0,1.608109E0,4.229367E0,2.6162252E0,3.6257553E0,3.3606055E0,0E0,0E0,4.9265404E0,4.802165E0,0E0,0E0,0E0,0E0,1.8343465E0,0E0,2.988809E0,3.3941393E0,3.3496518E0,0E0,0E0,0E0,0E0,0E0,2.9348626E0,0E0,1.5373335E0,0E0,0E0,0E0,0E0,0E0],"parents":[2147483647,0,0,1,1,2,2,3,3,4,4,5,5,6,6,7,7,8,8,11,11,12,12,17,17,19,19,20,20,21,21,27,27,29,29],"right_children":[2,4,6,8,10,12,14,16,18,-1,-1,20,22,-1,-1,-1,-1,24,-1,26,28,30,-1,-1,-1,-1,-1,32,-1,34,-1,-1,-1,-1,-1],"split_conditions":[-5.0919193E-1,-3.180408E-1,1.3389649E0,-6.1285865E-1,-2.9002133E-1,-2.2379886E-2,2.617718E-1,-6.9038826E-1,-3.3785453E-1,-1.0808586E-2,-5.5930216E-2,-2.5187957E-1,8.638176E-1,7.376931E-3,6.406411E-2,-5.0719418E-2,1.29557075E-2,1.1375103E0,-1.6671224E-2,-6.200321E-2,8.030027E-1,9.7582173E-1,-2.8731702E-2,3.5699427E-3,5.648029E-2,-7.8006326E-3,4.5710403E-2,-4.3735746E-2,1.7844243E-2,-7.926354E-1,-1.1976379E-2,-4.0330168E-2,-4.8244274E-3,1.0592415E-2,4.6926048E-2],"split_indices":[33,4,0,43,16,32,27,33,43,0,0,33,16,0,0,0,0,51,0,38,38,10,0,0,0,0,0,43,0,12,0,0,0,0,0],"split_type":[0,0,0,0,0,0,0,0,0,0,0,0,0,0,0,0,0,0,0,0,0,0,0,0,0,0,0,0,0,0,0,0,0,0,0],"sum_hessian":[9.681868E1,2.8001558E1,6.881712E1,1.9051054E1,8.950505E0,6.106955E1,7.7475753E0,7.856488E0,1.1194565E1,3.7484999E0,5.202005E0,3.7526882E1,2.3542667E1,4.3067265E0,3.4408488E0,4.747465E0,3.1090236E0,6.019727E0,5.1748376E0,9.078738E0,2.8448143E1,1.9835108E1,3.7075603E0,3.016491E0,3.0032363E0,4.301828E0,4.7769103E0,2.3824207E1,4.623936E0,1.6058336E1,3.776772E0,1.3674056E1,1.0150151E1,4.7388453E0,1.131949E1],"tree_param":{"num_deleted":"0","num_feature":"53","num_nodes":"35","size_leaf_vector":"1"}},{"base_weights":[5.3351678E-2,-3.50031E-2,1.1010546E-1,5.233577E-1,-1.6490974E-2,-1.2964469E-2,6.916733E-1,-2.95789E-1,1.7023277E-1,9.0715826E-1,-1.7467007E-3,-1.5391849E-1,-5.316776E-2,3.4076327E-1,-3.2204828E-1,1.0433342E0,1.594647E-2,2.02777E-2,-3.2801154E-1,-2.4244283E-1,4.9167794E-1,7.6613E-2,-5.394253E-2,6.431178E-2,2.673243E-2,-3.1985976E-2,1.9848308E-2,-3.2637455E-2,1.2840777E-2,3.1240338E-2,-1.781632E-2,3.5164673E-2,-2.0839276E-2],"categories":[],"categories_nodes":[],"categories_segments":[],"categories_sizes":[],"default_left":[0,0,0,0,0,0,0,0,0,0,0,0,0,0,0,0,0,0,0,0,0,0,0,0,0,0,0,0,0,0,0,0,0],"id":33,"left_children":[1,-1,3,5,7,-1,9,11,13,15,-1,17,-1,19,21,23,-1,-1,25,27,29,31,-1,-1,-1,-1,-1,-1,-1,-1,-1,-1,-1],"loss_changes":[4.381111E0,0E0,4.9509754E0,3.1017084E0,3.8723493E0,0E0,2.9330482E0,3.0737078E0,3.85025E0,8.150425E-1,0E0,2.6908424E0,0E0,3.0746439E0,3.6964755E0,6.9559E-1,0E0,0E0,4.904953E0,1.7188878E0,3.271491E0,3.0075984E0,0E0,0E0,0E0,0E0,0E0,0E0,0E0,0E0,0E0,0E0,0E0],"parents":[2147483647,0,0,2,2,3,3,4,4,6,6,7,7,8,8,9,9,11,11,13,13,14,14,15,15,18,18,19,19,20,20,21,21],"right_children":[2,-1,4,6,8,-1,10,12,14,16,-1,18,-1,20,22,24,-1,-1,26,28,30,32,-1,-1,-1,-1,-1,-1,-1,-1,-1,-1,-1],"split_conditions":[-6.356793E-1,-3.50031E-2,-4.6182552E-1,-1.0003518E0,-1.4206342E-1,-1.2964469E-2,-1.9295324E-1,-2.5187957E-1,5.3779894E-1,1.4225667E0,-1.7467007E-3,-6.3419354E-1,-5.316776E-2,-4.9138823E-1,8.796572E-1,-4.6594906E-1,1.594647E-2,2.02777E-2,6.264715E-1,5.7935584E-2,1.6722654E0,-2.6767558E-1,-5.394253E-2,6.431178E-2,2.673243E-2,-3.1985976E-2,1.9848308E-2,-3.2637455E-2,1.2840777E-2,3.1240338E-2,-1.781632E-2,3.5164673E-2,-2.0839276E-2],"split_indices":[4,0,4,0,33,0,43,33,8,48,0,36,0,43,11,32,0,0,36,36,43,45,0,0,0,0,0,0,0,0,0,0,0],"split_type":[0,0,0,0,0,0,0,0,0,0,0,0,0,0,0,0,0,0,0,0,0,0,0,0,0,0,0,0,0,0,0,0,0],"sum_hessian":[9.96577E1,6.1871696E0,9.347053E1,2.1184223E1,7.228631E1,3.6538358E0,1.7530388E1,2.8729355E1,4.355695E1,1.3329009E1,4.201379E0,2.5260874E1,3.4684808E0,3.2579063E1,1.0977888E1,1.0195132E1,3.1338768E0,5.679495E0,1.9581379E1,6.5726657E0,2.6006397E1,7.778939E0,3.198949E0,5.8656783E0,4.3294535E0,1.3775942E1,5.805437E0,3.4389722E0,3.1336935E0,2.2705109E1,3.3012888E0,3.2392554E0,4.5396833E0],"tree_param":{"num_deleted":"0","num_feature":"53","num_nodes":"33","size_leaf_vector":"1"}},{"base_weights":[-4.834913E-2,1.567601E-2,-6.588049E-1,-8.4902406E-2,5.0811076E-1,-4.297784E-2,-1.1362792E-2,-3.738525E-2,-1.888745E-2,9.549672E-1,5.320307E-2,-3.380515E-2,5.380581E-2,6.1108198E-2,2.331062E-2,2.8608058E-2,-1.8099818E-2,1.1895724E-1,-4.280808E-2,1.8285071E-2,-2.2053747E-3],"categories":[],"categories_nodes":[],"categories_segments":[],"categories_sizes":[],"default_left":[0,0,0,0,0,0,0,0,0,0,0,0,0,0,0,0,0,0,0,0,0],"id":34,"left_children":[1,3,5,7,9,-1,-1,-1,11,13,15,-1,17,-1,-1,-1,-1,19,-1,-1,-1],"loss_changes":[3.7068582E0,4.331144E0,5.8446026E-1,3.169034E0,2.9632208E0,0E0,0E0,0E0,3.2462041E0,3.993144E-1,2.018447E0,0E0,3.7432427E0,0E0,0E0,0E0,0E0,2.3576381E0,0E0,0E0,0E0],"parents":[2147483647,0,0,1,1,2,2,3,3,4,4,8,8,9,9,10,10,12,12,17,17],"right_children":[2,4,6,8,10,-1,-1,-1,12,14,16,-1,18,-1,-1,-1,-1,20,-1,-1,-1],"split_conditions":[1.2404205E0,6.7239153E-1,7.60829E-1,-1.183555E0,8.9334977E-1,-4.297784E-2,-1.1362792E-2,-3.738525E-2,-9.2608935E-1,2.871587E-1,-7.442678E-1,-3.380515E-2,1.2859443E0,6.1108198E-2,2.331062E-2,2.8608058E-2,-1.8099818E-2,-6.020345E-1,-4.280808E-2,1.8285071E-2,-2.2053747E-3],"split_indices":[23,36,42,20,31,0,0,0,33,45,22,0,44,0,0,0,0,8,0,0,0],"split_type":[0,0,0,0,0,0,0,0,0,0,0,0,0,0,0,0,0,0,0,0,0],"sum_hessian":[9.357788E1,8.557683E1,8.001054E0,7.174973E1,1.3827095E1,4.78386E0,3.2171936E0,5.563622E0,6.618611E1,6.4207397E0,7.406355E0,5.764932E0,6.042118E1,3.181101E0,3.2396386E0,3.1238337E0,4.2825212E0,5.7195404E1,3.2257771E0,2.226383E1,3.4931572E1],"tree_param":{"num_deleted":"0","num_feature":"53","num_nodes":"21","size_leaf_vector":"1"}},{"base_weights":[1.3760237E-2,-4.5523965E-1,9.012548E-2,1.2581134E-2,-8.6900914E-1,-3.0894054E-2,1.3293597E-1,-2.3678282E-2,-5.5322357E-2,5.7335585E-1,1.4026658E-2,7.5664675E-1,-1.1440281E-2,1.3013606E-1,-3.783544E-1,8.73652E-3,1.0982159E0,5.276779E-2,2.8580237E-2,-5.838736E-1,1.3917911E-2,3.0552644E-2,6.9473214E-2,2.2416344E-2,-4.8967316E-3,-4.1759323E-2,-1.3113748E-3],"categories":[],"categories_nodes":[],"categories_segments":[],"categories_sizes":[],"default_left":[0,0,0,0,0,0,0,0,0,0,0,0,0,0,0,0,0,0,0,0,0,0,0,0,0,0,0],"id":35,"left_children":[1,3,5,-1,7,-1,9,-1,-1,11,13,15,-1,17,19,-1,21,-1,23,25,-1,-1,-1,-1,-1,-1,-1],"loss_changes":[3.6310654E0,4.372175E0,2.7202225E0,0E0,3.38171E-1,0E0,4.333259E0,0E0,0E0,2.7605624E0,3.069741E0,2.7015533E0,0E0,4.8468046E0,2.2402933E0,0E0,4.2561817E-1,0E0,2.5821838E0,1.6665506E0,0E0,0E0,0E0,0E0,0E0,0E0,0E0],"parents":[2147483647,0,0,1,1,2,2,4,4,6,6,9,9,10,10,11,11,13,13,14,14,16,16,18,18,19,19],"right_children":[2,4,6,-1,8,-1,10,-1,-1,12,14,16,-1,18,20,-1,22,-1,24,26,-1,-1,-1,-1,-1,-1,-1],"split_conditions":[-6.685882E-1,-4.8976338E-1,-1.347568E0,1.2581134E-2,-6.803901E-2,-3.0894054E-2,-6.282158E-1,-2.3678282E-2,-5.5322357E-2,1.0555303E0,2.5654903E-1,-1.974813E-1,-1.1440281E-2,-7.6181537E-1,8.534198E-1,8.73652E-3,-1.0712962E0,5.276779E-2,-7.158517E-1,-7.436167E-2,1.3917911E-2,3.0552644E-2,6.9473214E-2,2.2416344E-2,-4.8967316E-3,-4.1759323E-2,-1.3113748E-3],"split_indices":[24,23,42,0,8,0,12,0,0,33,43,28,0,11,33,0,42,0,33,44,0,0,0,0,0,0,0],"split_type":[0,0,0,0,0,0,0,0,0,0,0,0,0,0,0,0,0,0,0,0,0,0,0,0,0,0,0],"sum_hessian":[9.923754E1,1.3201109E1,8.603643E1,5.0189214E0,8.182188E0,4.1397457E0,8.189668E1,4.1931477E0,3.9890397E0,1.6598154E1,6.529853E1,1.3557138E1,3.041016E0,5.0903908E1,1.4394623E1,5.5734496E0,7.983689E0,4.1058517E0,4.6798054E1,1.1048037E1,3.3465855E0,4.146313E0,3.837376E0,1.02493725E1,3.6548683E1,7.272748E0,3.775289E0],"tree_param":{"num_deleted":"0","num_feature":"53","num_nodes":"27","size_leaf_vector":"1"}},{"base_weights":[4.34674E-2,-2.605012E-2,8.567783E-2,4.0404443E-2,4.5068663E-2,9.991929E-2,-4.1164753E-1,-4.973625E-3,6.194589E-1,-3.914173E-2,1.9498526E-3,6.418675E-2,-3.4038715E-2,5.9930142E-2,1.8320666E-1,7.3567242E-3,-2.2676198E-2,2.8826246E-2,-7.464563E-3],"categories":[],"categories_nodes":[],"categories_segments":[],"categories_sizes":[],"default_left":[0,0,0,0,0,0,0,0,0,0,0,0,0,0,0,0,0,0,0],"id":36,"left_children":[1,-1,3,-1,5,7,9,11,13,-1,-1,15,-1,-1,17,-1,-1,-1,-1],"loss_changes":[2.3698697E0,0E0,2.6525333E0,0E0,2.2416196E0,4.3205924E0,1.6386235E0,3.1709642E0,3.1448517E0,0E0,0E0,2.71252E0,0E0,0E0,1.233727E0,0E0,0E0,0E0,0E0],"parents":[2147483647,0,0,2,2,4,4,5,5,6,6,7,7,8,8,11,11,14,14],"right_children":[2,-1,4,-1,6,8,10,12,14,-1,-1,16,-1,-1,18,-1,-1,-1,-1],"split_conditions":[-6.356793E-1,-2.605012E-2,-1.1333601E0,4.0404443E-2,1.2404205E0,6.7239153E-1,4.324242E-2,1.0363051E0,8.5220104E-1,-3.914173E-2,1.9498526E-3,3.7892377E-1,-3.4038715E-2,5.9930142E-2,-8.095478E-1,7.3567242E-3,-2.2676198E-2,2.8826246E-2,-7.464563E-3],"split_indices":[4,0,36,0,23,36,38,37,31,0,0,32,0,0,22,0,0,0,0],"split_type":[0,0,0,0,0,0,0,0,0,0,0,0,0,0,0,0,0,0,0],"sum_hessian":[9.6590065E1,5.9311585E0,9.065891E1,3.8191698E0,8.683974E1,7.8226166E1,8.613571E0,6.59097E1,1.231647E1,4.3189735E0,4.294598E0,6.06118E1,5.297896E0,4.540826E0,7.775644E0,5.2858585E1,7.753217E0,3.2258284E0,4.5498157E0],"tree_param":{"num_deleted":"0","num_feature":"53","num_nodes":"19","size_leaf_vector":"1"}},{"base_weights":[-1.6450534E-2,-5.3434875E-2,3.780746E-2,1.3622226E-1,-2.233704E-1,-1.9609004E-2,6.602163E-1,-7.9013176E-2,-8.008342E-1,-3.5341868E-1,3.0435053E-1,5.041634E-2,-1.2924941E-3,-6.2741864E-1,1.6266423E-1,-1.7004205E-2,-5.6644566E-2,1.8531623E-1,-7.122364E-1,6.258254E-1,-2.8864586E-1,-2.4152364E-1,-5.0086766E-2,-7.448984E-3,4.5819353E-2,4.2337727E-2,-2.0740224E-2,-4.7828387E-2,-4.0041087E-3,9.196638E-3,6.2285196E-2,-3.252712E-2,6.5082978E-3,1.0952943E-2,-3.0330617E-2,2.0791834E-2,-2.2087967E-2],"categories":[],"categories_nodes":[],"categories_segments":[],"categories_sizes":[],"default_left":[0,0,0,0,0,0,0,0,0,0,0,0,0,0,0,0,0,0,0,0,0,0,0,0,0,0,0,0,0,0,0,0,0,0,0,0,0],"id":37,"left_children":[1,3,-1,5,7,9,11,13,15,17,19,-1,-1,21,23,-1,-1,25,27,29,31,33,-1,35,-1,-1,-1,-1,-1,-1,-1,-1,-1,-1,-1,-1,-1],"loss_changes":[2.8067236E0,3.038195E0,0E0,3.6648502E0,4.0714054E0,3.9404235E0,2.4813347E0,5.5082097E0,1.1156049E0,3.595855E0,3.7119927E0,0E0,0E0,1.590075E0,3.7388356E0,0E0,0E0,3.5097296E0,1.6165152E0,3.1477232E0,1.1754152E0,1.4045637E0,0E0,4.73165E0,0E0,0E0,0E0,0E0,0E0,0E0,0E0,0E0,0E0,0E0,0E0,0E0,0E0],"parents":[2147483647,0,0,1,1,3,3,4,4,5,5,6,6,7,7,8,8,9,9,10,10,13,13,14,14,17,17,18,18,19,19,20,20,21,21,23,23],"right_children":[2,4,-1,6,8,10,12,14,16,18,20,-1,-1,22,24,-1,-1,26,28,30,32,34,-1,36,-1,-1,-1,-1,-1,-1,-1,-1,-1,-1,-1,-1,-1],"split_conditions":[1.7044663E0,-2.0349783E-1,3.780746E-2,3.7783065E-1,4.619961E-1,-3.2144588E-1,-1.1485718E-1,2.565833E-1,5.8141553E-1,-1.0548922E-1,1.04548186E-1,5.041634E-2,-1.2924941E-3,-3.397408E-1,1.9391449E-1,-1.7004205E-2,-5.6644566E-2,-3.6911213E-1,6.010155E-1,1.6328754E-1,1.1375103E0,-4.9081343E-1,-5.0086766E-2,-9.3019783E-1,4.5819353E-2,4.2337727E-2,-2.0740224E-2,-4.7828387E-2,-4.0041087E-3,9.196638E-3,6.2285196E-2,-3.252712E-2,6.5082978E-3,1.0952943E-2,-3.0330617E-2,2.0791834E-2,-2.2087967E-2],"split_indices":[5,40,0,28,39,44,23,40,16,26,8,0,0,24,39,0,0,11,37,32,51,10,0,42,0,0,0,0,0,0,0,0,0,0,0,0,0],"split_type":[0,0,0,0,0,0,0,0,0,0,0,0,0,0,0,0,0,0,0,0,0,0,0,0,0,0,0,0,0,0,0,0,0,0,0,0,0],"sum_hessian":[9.581213E1,9.232345E1,3.4886854E0,4.372377E1,4.8599678E1,3.444323E1,9.2805395E0,3.9789684E1,8.809994E0,1.6918934E1,1.7524298E1,5.8450394E0,3.4355004E0,1.1682985E1,2.8106699E1,4.537751E0,4.272242E0,6.9570456E0,9.961888E0,1.1327875E1,6.196422E0,6.5626154E0,5.1203704E0,2.3738989E1,4.367709E0,3.1139514E0,3.8430943E0,6.814757E0,3.1471317E0,7.3704376E0,3.9574373E0,3.0272565E0,3.1691656E0,3.078667E0,3.4839485E0,1.2043623E1,1.1695367E1],"tree_param":{"num_deleted":"0","num_feature":"53","num_nodes":"37","size_leaf_vector":"1"}},{"base_weights":[-6.496521E-2,-3.1416297E-2,-3.565881E-2,-1.0330983E-1,6.51672E-1,7.568312E-2,-3.3366045E-1,5.923405E-2,6.4322203E-3,2.4079232E-1,-2.4662727E-1,-4.8967728E-1,2.0869317E-2,-3.4459832E-1,5.170114E-1,2.4938848E-2,-4.8602417E-1,1.14426045E-2,-6.6176057E-1,-3.5365786E-2,9.030978E-3,-1.4056066E-2,3.4996793E-2,-1.9708532E-3,-5.1602937E-2,-4.1649874E-2,7.855436E-3],"categories":[],"categories_nodes":[],"categories_segments":[],"categories_sizes":[],"default_left":[0,0,0,0,0,0,0,0,0,0,0,0,0,0,0,0,0,0,0,0,0,0,0,0,0,0,0],"id":38,"left_children":[1,3,-1,5,7,9,11,-1,-1,13,15,17,-1,19,21,-1,23,-1,25,-1,-1,-1,-1,-1,-1,-1,-1],"loss_changes":[2.0811975E0,4.63539E0,0E0,3.530856E0,2.355069E0,2.6489165E0,4.5824113E0,0E0,0E0,5.462885E0,3.2719736E0,4.033526E0,0E0,2.2381296E0,3.4970999E0,0E0,3.2165315E0,0E0,3.718708E0,0E0,0E0,0E0,0E0,0E0,0E0,0E0,0E0],"parents":[2147483647,0,0,1,1,3,3,4,4,5,5,6,6,9,9,10,10,11,11,13,13,14,14,16,16,18,18],"right_children":[2,4,-1,6,8,10,12,-1,-1,14,16,18,-1,20,22,-1,24,-1,26,-1,-1,-1,-1,-1,-1,-1,-1],"split_conditions":[2.089285E0,1.1162894E0,-3.565881E-2,9.398455E-2,1.2404205E0,-3.3336094E-1,7.1072996E-1,5.923405E-2,6.4322203E-3,-7.9724044E-1,-6.696342E-1,-1.1754065E0,2.0869317E-2,1.3415472E-1,-6.526401E-1,2.4938848E-2,-5.0374676E-2,1.14426045E-2,1.2702515E0,-3.5365786E-2,9.030978E-3,-1.4056066E-2,3.4996793E-2,-1.9708532E-3,-5.1602937E-2,-4.1649874E-2,7.855436E-3],"split_indices":[23,23,0,47,23,23,45,0,0,32,12,42,0,37,45,0,45,0,42,0,0,0,0,0,0,0,0],"split_type":[0,0,0,0,0,0,0,0,0,0,0,0,0,0,0,0,0,0,0,0,0,0,0,0,0,0,0],"sum_hessian":[9.5731735E1,9.2017715E1,3.7140174E0,8.402322E1,7.9944973E0,4.7660374E1,3.6362843E1,3.332924E0,4.6615734E0,3.1683077E1,1.5977299E1,3.0396507E1,5.966336E0,1.0077754E1,2.1605324E1,3.620564E0,1.2356734E1,5.809441E0,2.4587067E1,5.7559586E0,4.3217955E0,3.92836E0,1.7676964E1,7.387012E0,4.9697223E0,2.032051E1,4.2665544E0],"tree_param":{"num_deleted":"0","num_feature":"53","num_nodes":"27","size_leaf_vector":"1"}},{"base_weights":[2.3355361E-2,-2.335785E-2,5.554771E-1,-6.242238E-2,3.7671268E-2,5.9029102E-2,-1.3106919E-2,-1.9270552E-2,-4.4195652E-2,-3.9331466E-1,7.061547E-2,-6.6768146E-1,1.3782821E-2,5.575798E-1,-4.654026E-2,-4.0598507E-3,-4.3933935E-2,-7.800345E-4,5.316171E-2,-4.7942128E-2,2.2572817E-3],"categories":[],"categories_nodes":[],"categories_segments":[],"categories_sizes":[],"default_left":[0,0,0,0,0,0,0,0,0,0,0,0,0,0,0,0,0,0,0,0,0],"id":39,"left_children":[1,3,5,7,-1,-1,-1,9,-1,11,13,15,-1,17,19,-1,-1,-1,-1,-1,-1],"loss_changes":[2.286762E0,2.6278987E0,4.103094E0,2.8863244E0,0E0,0E0,0E0,2.6783984E0,0E0,3.0155592E0,3.7006197E0,1.3186078E0,0E0,3.6592035E0,4.463319E0,0E0,0E0,0E0,0E0,0E0,0E0],"parents":[2147483647,0,0,1,1,2,2,3,3,7,7,9,9,10,10,11,11,13,13,14,14],"right_children":[2,4,6,8,-1,-1,-1,10,-1,12,14,16,-1,18,20,-1,-1,-1,-1,-1,-1],"split_conditions":[1.5496637E0,1.9887763E0,5.5894684E-2,1.4871134E0,3.7671268E-2,5.9029102E-2,-1.3106919E-2,-9.907614E-1,-4.4195652E-2,2.2748855E-1,-5.9205085E-1,-4.0599686E-1,1.3782821E-2,-3.6710274E-1,-5.1431733E-1,-4.0598507E-3,-4.3933935E-2,-7.800345E-4,5.316171E-2,-4.7942128E-2,2.2572817E-3],"split_indices":[5,20,44,16,0,0,0,40,0,32,21,11,0,44,16,0,0,0,0,0,0],"split_type":[0,0,0,0,0,0,0,0,0,0,0,0,0,0,0,0,0,0,0,0,0],"sum_hessian":[9.04743E1,8.405177E1,6.4225235E0,8.09028E1,3.1489725E0,3.3881738E0,3.0343494E0,7.7837555E1,3.0652466E0,1.4426912E1,6.341064E1,1.0232259E1,4.1946545E0,1.1568058E1,5.1842583E1,3.073641E0,7.1586175E0,5.8762407E0,5.6918173E0,3.87064E0,4.7971943E1],"tree_param":{"num_deleted":"0","num_feature":"53","num_nodes":"21","size_leaf_vector":"1"}},{"base_weights":[1.0750954E-2,-5.162398E-1,1.0013338E-1,-6.749548E-2,-8.777173E-1,-3.563634E-2,1.4558907E-1,-2.1695083E-2,1.7156702E-2,-5.3368658E-2,-2.2332976E-2,